digraph Tree {
node [shape=box, style="rounded", color="black", fontname="helvetica"] ;
edge [fontname="helvetica"] ;
0 [label="x[498] <= 1.5\ngini = 0.495\nsamples = 33723\nvalue = [18615, 15108]\nclass = 0"] ;
1 [label="x[2] <= 0.5\ngini = 0.494\nsamples = 11988\nvalue = [5336, 6652]\nclass = 1"] ;
0 -> 1 [labeldistance=2.5, labelangle=45, headlabel="True"] ;
2 [label="x[499] <= 1.5\ngini = 0.46\nsamples = 8057\nvalue = [2884, 5173]\nclass = 1"] ;
1 -> 2 ;
3 [label="x[494] <= 1.5\ngini = 0.336\nsamples = 3860\nvalue = [826, 3034]\nclass = 1"] ;
2 -> 3 ;
4 [label="x[495] <= 1.5\ngini = 0.204\nsamples = 2092\nvalue = [241, 1851]\nclass = 1"] ;
3 -> 4 ;
5 [label="x[200] <= 0.5\ngini = 0.131\nsamples = 1699\nvalue = [120, 1579]\nclass = 1"] ;
4 -> 5 ;
6 [label="x[389] <= 1.5\ngini = 0.269\nsamples = 319\nvalue = [51, 268]\nclass = 1"] ;
5 -> 6 ;
7 [label="x[282] <= 1.5\ngini = 0.116\nsamples = 162\nvalue = [10, 152]\nclass = 1"] ;
6 -> 7 ;
8 [label="x[460] <= 1.5\ngini = 0.043\nsamples = 136\nvalue = [3, 133]\nclass = 1"] ;
7 -> 8 ;
9 [label="gini = 0.0\nsamples = 112\nvalue = [0, 112]\nclass = 1"] ;
8 -> 9 ;
10 [label="x[442] <= 1.5\ngini = 0.219\nsamples = 24\nvalue = [3, 21]\nclass = 1"] ;
8 -> 10 ;
11 [label="gini = 0.5\nsamples = 6\nvalue = [3, 3]\nclass = 0"] ;
10 -> 11 ;
12 [label="gini = 0.0\nsamples = 18\nvalue = [0, 18]\nclass = 1"] ;
10 -> 12 ;
13 [label="x[392] <= 1.5\ngini = 0.393\nsamples = 26\nvalue = [7, 19]\nclass = 1"] ;
7 -> 13 ;
14 [label="x[330] <= 0.5\ngini = 0.375\nsamples = 8\nvalue = [6, 2]\nclass = 0"] ;
13 -> 14 ;
15 [label="gini = 0.0\nsamples = 2\nvalue = [0, 2]\nclass = 1"] ;
14 -> 15 ;
16 [label="gini = 0.0\nsamples = 6\nvalue = [6, 0]\nclass = 0"] ;
14 -> 16 ;
17 [label="x[468] <= 1.5\ngini = 0.105\nsamples = 18\nvalue = [1, 17]\nclass = 1"] ;
13 -> 17 ;
18 [label="gini = 0.0\nsamples = 1\nvalue = [1, 0]\nclass = 0"] ;
17 -> 18 ;
19 [label="gini = 0.0\nsamples = 17\nvalue = [0, 17]\nclass = 1"] ;
17 -> 19 ;
20 [label="x[286] <= 0.5\ngini = 0.386\nsamples = 157\nvalue = [41, 116]\nclass = 1"] ;
6 -> 20 ;
21 [label="x[498] <= 0.5\ngini = 0.497\nsamples = 54\nvalue = [25, 29]\nclass = 1"] ;
20 -> 21 ;
22 [label="gini = 0.0\nsamples = 8\nvalue = [0, 8]\nclass = 1"] ;
21 -> 22 ;
23 [label="x[355] <= 1.5\ngini = 0.496\nsamples = 46\nvalue = [25, 21]\nclass = 0"] ;
21 -> 23 ;
24 [label="gini = 0.463\nsamples = 33\nvalue = [21, 12]\nclass = 0"] ;
23 -> 24 ;
25 [label="gini = 0.426\nsamples = 13\nvalue = [4, 9]\nclass = 1"] ;
23 -> 25 ;
26 [label="x[413] <= 0.5\ngini = 0.262\nsamples = 103\nvalue = [16, 87]\nclass = 1"] ;
20 -> 26 ;
27 [label="x[230] <= 0.5\ngini = 0.375\nsamples = 4\nvalue = [3, 1]\nclass = 0"] ;
26 -> 27 ;
28 [label="gini = 0.0\nsamples = 1\nvalue = [0, 1]\nclass = 1"] ;
27 -> 28 ;
29 [label="gini = 0.0\nsamples = 3\nvalue = [3, 0]\nclass = 0"] ;
27 -> 29 ;
30 [label="x[100] <= 1.5\ngini = 0.228\nsamples = 99\nvalue = [13, 86]\nclass = 1"] ;
26 -> 30 ;
31 [label="gini = 0.201\nsamples = 97\nvalue = [11, 86]\nclass = 1"] ;
30 -> 31 ;
32 [label="gini = 0.0\nsamples = 2\nvalue = [2, 0]\nclass = 0"] ;
30 -> 32 ;
33 [label="x[498] <= 0.5\ngini = 0.095\nsamples = 1380\nvalue = [69, 1311]\nclass = 1"] ;
5 -> 33 ;
34 [label="x[448] <= 1.5\ngini = 0.498\nsamples = 15\nvalue = [7, 8]\nclass = 1"] ;
33 -> 34 ;
35 [label="gini = 0.0\nsamples = 8\nvalue = [0, 8]\nclass = 1"] ;
34 -> 35 ;
36 [label="gini = 0.0\nsamples = 7\nvalue = [7, 0]\nclass = 0"] ;
34 -> 36 ;
37 [label="x[496] <= 1.5\ngini = 0.087\nsamples = 1365\nvalue = [62, 1303]\nclass = 1"] ;
33 -> 37 ;
38 [label="x[499] <= 0.5\ngini = 0.059\nsamples = 1054\nvalue = [32, 1022]\nclass = 1"] ;
37 -> 38 ;
39 [label="x[319] <= 1.5\ngini = 0.397\nsamples = 22\nvalue = [6, 16]\nclass = 1"] ;
38 -> 39 ;
40 [label="gini = 0.0\nsamples = 12\nvalue = [0, 12]\nclass = 1"] ;
39 -> 40 ;
41 [label="gini = 0.48\nsamples = 10\nvalue = [6, 4]\nclass = 0"] ;
39 -> 41 ;
42 [label="x[245] <= 0.5\ngini = 0.049\nsamples = 1032\nvalue = [26, 1006]\nclass = 1"] ;
38 -> 42 ;
43 [label="gini = 0.332\nsamples = 19\nvalue = [4, 15]\nclass = 1"] ;
42 -> 43 ;
44 [label="gini = 0.042\nsamples = 1013\nvalue = [22, 991]\nclass = 1"] ;
42 -> 44 ;
45 [label="x[383] <= 0.5\ngini = 0.174\nsamples = 311\nvalue = [30, 281]\nclass = 1"] ;
37 -> 45 ;
46 [label="x[411] <= 0.5\ngini = 0.375\nsamples = 4\nvalue = [3, 1]\nclass = 0"] ;
45 -> 46 ;
47 [label="gini = 0.0\nsamples = 1\nvalue = [0, 1]\nclass = 1"] ;
46 -> 47 ;
48 [label="gini = 0.0\nsamples = 3\nvalue = [3, 0]\nclass = 0"] ;
46 -> 48 ;
49 [label="x[407] <= 0.5\ngini = 0.16\nsamples = 307\nvalue = [27, 280]\nclass = 1"] ;
45 -> 49 ;
50 [label="gini = 0.0\nsamples = 2\nvalue = [2, 0]\nclass = 0"] ;
49 -> 50 ;
51 [label="gini = 0.15\nsamples = 305\nvalue = [25, 280]\nclass = 1"] ;
49 -> 51 ;
52 [label="x[497] <= 1.5\ngini = 0.426\nsamples = 393\nvalue = [121, 272]\nclass = 1"] ;
4 -> 52 ;
53 [label="x[292] <= 1.5\ngini = 0.373\nsamples = 230\nvalue = [57, 173]\nclass = 1"] ;
52 -> 53 ;
54 [label="x[189] <= 1.5\ngini = 0.455\nsamples = 83\nvalue = [29, 54]\nclass = 1"] ;
53 -> 54 ;
55 [label="x[384] <= 1.5\ngini = 0.386\nsamples = 65\nvalue = [17, 48]\nclass = 1"] ;
54 -> 55 ;
56 [label="x[273] <= 2.5\ngini = 0.165\nsamples = 33\nvalue = [3, 30]\nclass = 1"] ;
55 -> 56 ;
57 [label="gini = 0.117\nsamples = 32\nvalue = [2, 30]\nclass = 1"] ;
56 -> 57 ;
58 [label="gini = 0.0\nsamples = 1\nvalue = [1, 0]\nclass = 0"] ;
56 -> 58 ;
59 [label="x[484] <= 1.5\ngini = 0.492\nsamples = 32\nvalue = [14, 18]\nclass = 1"] ;
55 -> 59 ;
60 [label="gini = 0.219\nsamples = 8\nvalue = [7, 1]\nclass = 0"] ;
59 -> 60 ;
61 [label="gini = 0.413\nsamples = 24\nvalue = [7, 17]\nclass = 1"] ;
59 -> 61 ;
62 [label="x[133] <= 1.5\ngini = 0.444\nsamples = 18\nvalue = [12, 6]\nclass = 0"] ;
54 -> 62 ;
63 [label="gini = 0.0\nsamples = 9\nvalue = [9, 0]\nclass = 0"] ;
62 -> 63 ;
64 [label="x[479] <= 1.5\ngini = 0.444\nsamples = 9\nvalue = [3, 6]\nclass = 1"] ;
62 -> 64 ;
65 [label="gini = 0.375\nsamples = 4\nvalue = [3, 1]\nclass = 0"] ;
64 -> 65 ;
66 [label="gini = 0.0\nsamples = 5\nvalue = [0, 5]\nclass = 1"] ;
64 -> 66 ;
67 [label="x[324] <= 0.5\ngini = 0.308\nsamples = 147\nvalue = [28, 119]\nclass = 1"] ;
53 -> 67 ;
68 [label="gini = 0.0\nsamples = 3\nvalue = [3, 0]\nclass = 0"] ;
67 -> 68 ;
69 [label="x[387] <= 1.5\ngini = 0.287\nsamples = 144\nvalue = [25, 119]\nclass = 1"] ;
67 -> 69 ;
70 [label="x[426] <= 1.5\ngini = 0.47\nsamples = 37\nvalue = [14, 23]\nclass = 1"] ;
69 -> 70 ;
71 [label="gini = 0.426\nsamples = 13\nvalue = [9, 4]\nclass = 0"] ;
70 -> 71 ;
72 [label="gini = 0.33\nsamples = 24\nvalue = [5, 19]\nclass = 1"] ;
70 -> 72 ;
73 [label="x[340] <= 0.5\ngini = 0.184\nsamples = 107\nvalue = [11, 96]\nclass = 1"] ;
69 -> 73 ;
74 [label="gini = 0.0\nsamples = 3\nvalue = [3, 0]\nclass = 0"] ;
73 -> 74 ;
75 [label="gini = 0.142\nsamples = 104\nvalue = [8, 96]\nclass = 1"] ;
73 -> 75 ;
76 [label="x[292] <= 1.5\ngini = 0.477\nsamples = 163\nvalue = [64, 99]\nclass = 1"] ;
52 -> 76 ;
77 [label="x[496] <= 0.5\ngini = 0.331\nsamples = 62\nvalue = [13, 49]\nclass = 1"] ;
76 -> 77 ;
78 [label="gini = 0.0\nsamples = 2\nvalue = [2, 0]\nclass = 0"] ;
77 -> 78 ;
79 [label="x[421] <= 1.5\ngini = 0.299\nsamples = 60\nvalue = [11, 49]\nclass = 1"] ;
77 -> 79 ;
80 [label="x[437] <= 1.5\ngini = 0.49\nsamples = 14\nvalue = [6, 8]\nclass = 1"] ;
79 -> 80 ;
81 [label="gini = 0.278\nsamples = 6\nvalue = [5, 1]\nclass = 0"] ;
80 -> 81 ;
82 [label="gini = 0.219\nsamples = 8\nvalue = [1, 7]\nclass = 1"] ;
80 -> 82 ;
83 [label="x[466] <= 0.5\ngini = 0.194\nsamples = 46\nvalue = [5, 41]\nclass = 1"] ;
79 -> 83 ;
84 [label="gini = 0.0\nsamples = 1\nvalue = [1, 0]\nclass = 0"] ;
83 -> 84 ;
85 [label="gini = 0.162\nsamples = 45\nvalue = [4, 41]\nclass = 1"] ;
83 -> 85 ;
86 [label="x[302] <= 1.5\ngini = 0.5\nsamples = 101\nvalue = [51, 50]\nclass = 0"] ;
76 -> 86 ;
87 [label="x[384] <= 1.5\ngini = 0.412\nsamples = 31\nvalue = [22, 9]\nclass = 0"] ;
86 -> 87 ;
88 [label="x[166] <= 1.5\ngini = 0.278\nsamples = 6\nvalue = [1, 5]\nclass = 1"] ;
87 -> 88 ;
89 [label="gini = 0.0\nsamples = 5\nvalue = [0, 5]\nclass = 1"] ;
88 -> 89 ;
90 [label="gini = 0.0\nsamples = 1\nvalue = [1, 0]\nclass = 0"] ;
88 -> 90 ;
91 [label="x[409] <= 0.5\ngini = 0.269\nsamples = 25\nvalue = [21, 4]\nclass = 0"] ;
87 -> 91 ;
92 [label="gini = 0.0\nsamples = 2\nvalue = [0, 2]\nclass = 1"] ;
91 -> 92 ;
93 [label="gini = 0.159\nsamples = 23\nvalue = [21, 2]\nclass = 0"] ;
91 -> 93 ;
94 [label="x[398] <= 1.5\ngini = 0.485\nsamples = 70\nvalue = [29, 41]\nclass = 1"] ;
86 -> 94 ;
95 [label="x[367] <= 1.5\ngini = 0.375\nsamples = 16\nvalue = [12, 4]\nclass = 0"] ;
94 -> 95 ;
96 [label="gini = 0.0\nsamples = 3\nvalue = [0, 3]\nclass = 1"] ;
95 -> 96 ;
97 [label="gini = 0.142\nsamples = 13\nvalue = [12, 1]\nclass = 0"] ;
95 -> 97 ;
98 [label="x[484] <= 1.5\ngini = 0.431\nsamples = 54\nvalue = [17, 37]\nclass = 1"] ;
94 -> 98 ;
99 [label="gini = 0.105\nsamples = 18\nvalue = [1, 17]\nclass = 1"] ;
98 -> 99 ;
100 [label="gini = 0.494\nsamples = 36\nvalue = [16, 20]\nclass = 1"] ;
98 -> 100 ;
101 [label="x[497] <= 1.5\ngini = 0.443\nsamples = 1768\nvalue = [585, 1183]\nclass = 1"] ;
3 -> 101 ;
102 [label="x[491] <= 1.5\ngini = 0.367\nsamples = 878\nvalue = [213, 665]\nclass = 1"] ;
101 -> 102 ;
103 [label="x[486] <= 1.5\ngini = 0.467\nsamples = 282\nvalue = [105, 177]\nclass = 1"] ;
102 -> 103 ;
104 [label="x[488] <= 1.5\ngini = 0.484\nsamples = 105\nvalue = [62, 43]\nclass = 0"] ;
103 -> 104 ;
105 [label="x[489] <= 1.5\ngini = 0.364\nsamples = 71\nvalue = [54, 17]\nclass = 0"] ;
104 -> 105 ;
106 [label="x[273] <= 1.5\ngini = 0.457\nsamples = 17\nvalue = [6, 11]\nclass = 1"] ;
105 -> 106 ;
107 [label="gini = 0.0\nsamples = 8\nvalue = [0, 8]\nclass = 1"] ;
106 -> 107 ;
108 [label="gini = 0.444\nsamples = 9\nvalue = [6, 3]\nclass = 0"] ;
106 -> 108 ;
109 [label="x[383] <= 0.5\ngini = 0.198\nsamples = 54\nvalue = [48, 6]\nclass = 0"] ;
105 -> 109 ;
110 [label="gini = 0.0\nsamples = 2\nvalue = [0, 2]\nclass = 1"] ;
109 -> 110 ;
111 [label="gini = 0.142\nsamples = 52\nvalue = [48, 4]\nclass = 0"] ;
109 -> 111 ;
112 [label="x[161] <= 1.5\ngini = 0.36\nsamples = 34\nvalue = [8, 26]\nclass = 1"] ;
104 -> 112 ;
113 [label="x[327] <= 0.5\ngini = 0.08\nsamples = 24\nvalue = [1, 23]\nclass = 1"] ;
112 -> 113 ;
114 [label="gini = 0.0\nsamples = 1\nvalue = [1, 0]\nclass = 0"] ;
113 -> 114 ;
115 [label="gini = 0.0\nsamples = 23\nvalue = [0, 23]\nclass = 1"] ;
113 -> 115 ;
116 [label="x[217] <= 1.5\ngini = 0.42\nsamples = 10\nvalue = [7, 3]\nclass = 0"] ;
112 -> 116 ;
117 [label="gini = 0.0\nsamples = 2\nvalue = [0, 2]\nclass = 1"] ;
116 -> 117 ;
118 [label="gini = 0.219\nsamples = 8\nvalue = [7, 1]\nclass = 0"] ;
116 -> 118 ;
119 [label="x[224] <= 1.5\ngini = 0.368\nsamples = 177\nvalue = [43, 134]\nclass = 1"] ;
103 -> 119 ;
120 [label="x[342] <= 1.5\ngini = 0.497\nsamples = 67\nvalue = [31, 36]\nclass = 1"] ;
119 -> 120 ;
121 [label="x[431] <= 0.5\ngini = 0.375\nsamples = 24\nvalue = [18, 6]\nclass = 0"] ;
120 -> 121 ;
122 [label="gini = 0.0\nsamples = 3\nvalue = [0, 3]\nclass = 1"] ;
121 -> 122 ;
123 [label="gini = 0.245\nsamples = 21\nvalue = [18, 3]\nclass = 0"] ;
121 -> 123 ;
124 [label="x[408] <= 1.5\ngini = 0.422\nsamples = 43\nvalue = [13, 30]\nclass = 1"] ;
120 -> 124 ;
125 [label="gini = 0.42\nsamples = 10\nvalue = [7, 3]\nclass = 0"] ;
124 -> 125 ;
126 [label="gini = 0.298\nsamples = 33\nvalue = [6, 27]\nclass = 1"] ;
124 -> 126 ;
127 [label="x[463] <= 0.5\ngini = 0.194\nsamples = 110\nvalue = [12, 98]\nclass = 1"] ;
119 -> 127 ;
128 [label="x[357] <= 2.5\ngini = 0.375\nsamples = 4\nvalue = [3, 1]\nclass = 0"] ;
127 -> 128 ;
129 [label="gini = 0.0\nsamples = 3\nvalue = [3, 0]\nclass = 0"] ;
128 -> 129 ;
130 [label="gini = 0.0\nsamples = 1\nvalue = [0, 1]\nclass = 1"] ;
128 -> 130 ;
131 [label="x[443] <= 2.5\ngini = 0.155\nsamples = 106\nvalue = [9, 97]\nclass = 1"] ;
127 -> 131 ;
132 [label="gini = 0.126\nsamples = 104\nvalue = [7, 97]\nclass = 1"] ;
131 -> 132 ;
133 [label="gini = 0.0\nsamples = 2\nvalue = [2, 0]\nclass = 0"] ;
131 -> 133 ;
134 [label="x[357] <= 1.5\ngini = 0.297\nsamples = 596\nvalue = [108, 488]\nclass = 1"] ;
102 -> 134 ;
135 [label="x[337] <= 1.5\ngini = 0.414\nsamples = 171\nvalue = [50, 121]\nclass = 1"] ;
134 -> 135 ;
136 [label="x[484] <= 1.5\ngini = 0.498\nsamples = 64\nvalue = [30, 34]\nclass = 1"] ;
135 -> 136 ;
137 [label="x[432] <= 1.5\ngini = 0.305\nsamples = 16\nvalue = [13, 3]\nclass = 0"] ;
136 -> 137 ;
138 [label="gini = 0.0\nsamples = 3\nvalue = [0, 3]\nclass = 1"] ;
137 -> 138 ;
139 [label="gini = 0.0\nsamples = 13\nvalue = [13, 0]\nclass = 0"] ;
137 -> 139 ;
140 [label="x[371] <= 1.5\ngini = 0.457\nsamples = 48\nvalue = [17, 31]\nclass = 1"] ;
136 -> 140 ;
141 [label="gini = 0.498\nsamples = 30\nvalue = [16, 14]\nclass = 0"] ;
140 -> 141 ;
142 [label="gini = 0.105\nsamples = 18\nvalue = [1, 17]\nclass = 1"] ;
140 -> 142 ;
143 [label="x[386] <= 0.5\ngini = 0.304\nsamples = 107\nvalue = [20, 87]\nclass = 1"] ;
135 -> 143 ;
144 [label="gini = 0.0\nsamples = 3\nvalue = [3, 0]\nclass = 0"] ;
143 -> 144 ;
145 [label="x[422] <= 1.5\ngini = 0.273\nsamples = 104\nvalue = [17, 87]\nclass = 1"] ;
143 -> 145 ;
146 [label="gini = 0.473\nsamples = 26\nvalue = [10, 16]\nclass = 1"] ;
145 -> 146 ;
147 [label="gini = 0.163\nsamples = 78\nvalue = [7, 71]\nclass = 1"] ;
145 -> 147 ;
148 [label="x[394] <= 0.5\ngini = 0.236\nsamples = 425\nvalue = [58, 367]\nclass = 1"] ;
134 -> 148 ;
149 [label="gini = 0.0\nsamples = 3\nvalue = [3, 0]\nclass = 0"] ;
148 -> 149 ;
150 [label="x[484] <= 0.5\ngini = 0.227\nsamples = 422\nvalue = [55, 367]\nclass = 1"] ;
148 -> 150 ;
151 [label="x[309] <= 1.5\ngini = 0.444\nsamples = 6\nvalue = [4, 2]\nclass = 0"] ;
150 -> 151 ;
152 [label="gini = 0.0\nsamples = 2\nvalue = [0, 2]\nclass = 1"] ;
151 -> 152 ;
153 [label="gini = 0.0\nsamples = 4\nvalue = [4, 0]\nclass = 0"] ;
151 -> 153 ;
154 [label="x[251] <= 1.5\ngini = 0.215\nsamples = 416\nvalue = [51, 365]\nclass = 1"] ;
150 -> 154 ;
155 [label="gini = 0.337\nsamples = 140\nvalue = [30, 110]\nclass = 1"] ;
154 -> 155 ;
156 [label="gini = 0.141\nsamples = 276\nvalue = [21, 255]\nclass = 1"] ;
154 -> 156 ;
157 [label="x[493] <= 1.5\ngini = 0.487\nsamples = 890\nvalue = [372, 518]\nclass = 1"] ;
101 -> 157 ;
158 [label="x[496] <= 1.5\ngini = 0.324\nsamples = 261\nvalue = [53, 208]\nclass = 1"] ;
157 -> 158 ;
159 [label="x[396] <= 0.5\ngini = 0.23\nsamples = 166\nvalue = [22, 144]\nclass = 1"] ;
158 -> 159 ;
160 [label="x[460] <= 1.5\ngini = 0.48\nsamples = 5\nvalue = [3, 2]\nclass = 0"] ;
159 -> 160 ;
161 [label="gini = 0.0\nsamples = 2\nvalue = [0, 2]\nclass = 1"] ;
160 -> 161 ;
162 [label="gini = 0.0\nsamples = 3\nvalue = [3, 0]\nclass = 0"] ;
160 -> 162 ;
163 [label="x[227] <= 1.5\ngini = 0.208\nsamples = 161\nvalue = [19, 142]\nclass = 1"] ;
159 -> 163 ;
164 [label="x[413] <= 0.5\ngini = 0.111\nsamples = 102\nvalue = [6, 96]\nclass = 1"] ;
163 -> 164 ;
165 [label="gini = 0.0\nsamples = 1\nvalue = [1, 0]\nclass = 0"] ;
164 -> 165 ;
166 [label="gini = 0.094\nsamples = 101\nvalue = [5, 96]\nclass = 1"] ;
164 -> 166 ;
167 [label="x[175] <= 1.5\ngini = 0.344\nsamples = 59\nvalue = [13, 46]\nclass = 1"] ;
163 -> 167 ;
168 [label="gini = 0.451\nsamples = 32\nvalue = [11, 21]\nclass = 1"] ;
167 -> 168 ;
169 [label="gini = 0.137\nsamples = 27\nvalue = [2, 25]\nclass = 1"] ;
167 -> 169 ;
170 [label="x[492] <= 0.5\ngini = 0.44\nsamples = 95\nvalue = [31, 64]\nclass = 1"] ;
158 -> 170 ;
171 [label="gini = 0.0\nsamples = 4\nvalue = [4, 0]\nclass = 0"] ;
170 -> 171 ;
172 [label="x[369] <= 0.5\ngini = 0.417\nsamples = 91\nvalue = [27, 64]\nclass = 1"] ;
170 -> 172 ;
173 [label="x[499] <= 0.5\ngini = 0.42\nsamples = 10\nvalue = [7, 3]\nclass = 0"] ;
172 -> 173 ;
174 [label="gini = 0.0\nsamples = 3\nvalue = [0, 3]\nclass = 1"] ;
173 -> 174 ;
175 [label="gini = 0.0\nsamples = 7\nvalue = [7, 0]\nclass = 0"] ;
173 -> 175 ;
176 [label="x[484] <= 1.5\ngini = 0.372\nsamples = 81\nvalue = [20, 61]\nclass = 1"] ;
172 -> 176 ;
177 [label="gini = 0.499\nsamples = 21\nvalue = [11, 10]\nclass = 0"] ;
176 -> 177 ;
178 [label="gini = 0.255\nsamples = 60\nvalue = [9, 51]\nclass = 1"] ;
176 -> 178 ;
179 [label="x[466] <= 1.5\ngini = 0.5\nsamples = 629\nvalue = [319, 310]\nclass = 0"] ;
157 -> 179 ;
180 [label="x[485] <= 1.5\ngini = 0.453\nsamples = 199\nvalue = [130, 69]\nclass = 0"] ;
179 -> 180 ;
181 [label="x[488] <= 1.5\ngini = 0.25\nsamples = 82\nvalue = [70, 12]\nclass = 0"] ;
180 -> 181 ;
182 [label="x[318] <= 1.5\ngini = 0.245\nsamples = 7\nvalue = [1, 6]\nclass = 1"] ;
181 -> 182 ;
183 [label="gini = 0.0\nsamples = 1\nvalue = [1, 0]\nclass = 0"] ;
182 -> 183 ;
184 [label="gini = 0.0\nsamples = 6\nvalue = [0, 6]\nclass = 1"] ;
182 -> 184 ;
185 [label="x[498] <= 0.5\ngini = 0.147\nsamples = 75\nvalue = [69, 6]\nclass = 0"] ;
181 -> 185 ;
186 [label="gini = 0.0\nsamples = 2\nvalue = [0, 2]\nclass = 1"] ;
185 -> 186 ;
187 [label="gini = 0.104\nsamples = 73\nvalue = [69, 4]\nclass = 0"] ;
185 -> 187 ;
188 [label="x[181] <= 1.5\ngini = 0.5\nsamples = 117\nvalue = [60, 57]\nclass = 0"] ;
180 -> 188 ;
189 [label="x[181] <= 0.5\ngini = 0.463\nsamples = 74\nvalue = [47, 27]\nclass = 0"] ;
188 -> 189 ;
190 [label="gini = 0.493\nsamples = 59\nvalue = [33, 26]\nclass = 0"] ;
189 -> 190 ;
191 [label="gini = 0.124\nsamples = 15\nvalue = [14, 1]\nclass = 0"] ;
189 -> 191 ;
192 [label="x[337] <= 1.5\ngini = 0.422\nsamples = 43\nvalue = [13, 30]\nclass = 1"] ;
188 -> 192 ;
193 [label="gini = 0.0\nsamples = 13\nvalue = [0, 13]\nclass = 1"] ;
192 -> 193 ;
194 [label="gini = 0.491\nsamples = 30\nvalue = [13, 17]\nclass = 1"] ;
192 -> 194 ;
195 [label="x[487] <= 1.5\ngini = 0.493\nsamples = 430\nvalue = [189, 241]\nclass = 1"] ;
179 -> 195 ;
196 [label="x[489] <= 1.5\ngini = 0.488\nsamples = 118\nvalue = [68, 50]\nclass = 0"] ;
195 -> 196 ;
197 [label="x[456] <= 1.5\ngini = 0.375\nsamples = 56\nvalue = [42, 14]\nclass = 0"] ;
196 -> 197 ;
198 [label="gini = 0.48\nsamples = 10\nvalue = [4, 6]\nclass = 1"] ;
197 -> 198 ;
199 [label="gini = 0.287\nsamples = 46\nvalue = [38, 8]\nclass = 0"] ;
197 -> 199 ;
200 [label="x[394] <= 1.5\ngini = 0.487\nsamples = 62\nvalue = [26, 36]\nclass = 1"] ;
196 -> 200 ;
201 [label="gini = 0.397\nsamples = 22\nvalue = [16, 6]\nclass = 0"] ;
200 -> 201 ;
202 [label="gini = 0.375\nsamples = 40\nvalue = [10, 30]\nclass = 1"] ;
200 -> 202 ;
203 [label="x[270] <= 1.5\ngini = 0.475\nsamples = 312\nvalue = [121, 191]\nclass = 1"] ;
195 -> 203 ;
204 [label="x[495] <= 1.5\ngini = 0.5\nsamples = 160\nvalue = [78, 82]\nclass = 1"] ;
203 -> 204 ;
205 [label="gini = 0.431\nsamples = 51\nvalue = [35, 16]\nclass = 0"] ;
204 -> 205 ;
206 [label="gini = 0.478\nsamples = 109\nvalue = [43, 66]\nclass = 1"] ;
204 -> 206 ;
207 [label="x[463] <= 1.5\ngini = 0.406\nsamples = 152\nvalue = [43, 109]\nclass = 1"] ;
203 -> 207 ;
208 [label="gini = 0.491\nsamples = 37\nvalue = [21, 16]\nclass = 0"] ;
207 -> 208 ;
209 [label="gini = 0.309\nsamples = 115\nvalue = [22, 93]\nclass = 1"] ;
207 -> 209 ;
210 [label="x[497] <= 1.5\ngini = 0.5\nsamples = 4197\nvalue = [2058, 2139]\nclass = 1"] ;
2 -> 210 ;
211 [label="x[284] <= 0.5\ngini = 0.46\nsamples = 1654\nvalue = [594, 1060]\nclass = 1"] ;
210 -> 211 ;
212 [label="x[397] <= 0.5\ngini = 0.49\nsamples = 290\nvalue = [166, 124]\nclass = 0"] ;
211 -> 212 ;
213 [label="x[474] <= 1.5\ngini = 0.278\nsamples = 18\nvalue = [3, 15]\nclass = 1"] ;
212 -> 213 ;
214 [label="gini = 0.0\nsamples = 12\nvalue = [0, 12]\nclass = 1"] ;
213 -> 214 ;
215 [label="x[418] <= 1.5\ngini = 0.5\nsamples = 6\nvalue = [3, 3]\nclass = 0"] ;
213 -> 215 ;
216 [label="gini = 0.0\nsamples = 3\nvalue = [0, 3]\nclass = 1"] ;
215 -> 216 ;
217 [label="gini = 0.0\nsamples = 3\nvalue = [3, 0]\nclass = 0"] ;
215 -> 217 ;
218 [label="x[381] <= 0.5\ngini = 0.48\nsamples = 272\nvalue = [163, 109]\nclass = 0"] ;
212 -> 218 ;
219 [label="x[498] <= 0.5\ngini = 0.24\nsamples = 43\nvalue = [37, 6]\nclass = 0"] ;
218 -> 219 ;
220 [label="gini = 0.0\nsamples = 2\nvalue = [0, 2]\nclass = 1"] ;
219 -> 220 ;
221 [label="x[454] <= 0.5\ngini = 0.176\nsamples = 41\nvalue = [37, 4]\nclass = 0"] ;
219 -> 221 ;
222 [label="gini = 0.0\nsamples = 1\nvalue = [0, 1]\nclass = 1"] ;
221 -> 222 ;
223 [label="x[494] <= 0.5\ngini = 0.139\nsamples = 40\nvalue = [37, 3]\nclass = 0"] ;
221 -> 223 ;
224 [label="gini = 0.0\nsamples = 1\nvalue = [0, 1]\nclass = 1"] ;
223 -> 224 ;
225 [label="gini = 0.097\nsamples = 39\nvalue = [37, 2]\nclass = 0"] ;
223 -> 225 ;
226 [label="x[466] <= 1.5\ngini = 0.495\nsamples = 229\nvalue = [126, 103]\nclass = 0"] ;
218 -> 226 ;
227 [label="x[336] <= 1.5\ngini = 0.42\nsamples = 70\nvalue = [49, 21]\nclass = 0"] ;
226 -> 227 ;
228 [label="x[380] <= 0.5\ngini = 0.303\nsamples = 43\nvalue = [35, 8]\nclass = 0"] ;
227 -> 228 ;
229 [label="gini = 0.0\nsamples = 2\nvalue = [0, 2]\nclass = 1"] ;
228 -> 229 ;
230 [label="gini = 0.25\nsamples = 41\nvalue = [35, 6]\nclass = 0"] ;
228 -> 230 ;
231 [label="x[467] <= 1.5\ngini = 0.499\nsamples = 27\nvalue = [14, 13]\nclass = 0"] ;
227 -> 231 ;
232 [label="gini = 0.0\nsamples = 6\nvalue = [0, 6]\nclass = 1"] ;
231 -> 232 ;
233 [label="gini = 0.444\nsamples = 21\nvalue = [14, 7]\nclass = 0"] ;
231 -> 233 ;
234 [label="x[197] <= 1.5\ngini = 0.5\nsamples = 159\nvalue = [77, 82]\nclass = 1"] ;
226 -> 234 ;
235 [label="x[393] <= 1.5\ngini = 0.5\nsamples = 153\nvalue = [77, 76]\nclass = 0"] ;
234 -> 235 ;
236 [label="gini = 0.449\nsamples = 44\nvalue = [15, 29]\nclass = 1"] ;
235 -> 236 ;
237 [label="gini = 0.491\nsamples = 109\nvalue = [62, 47]\nclass = 0"] ;
235 -> 237 ;
238 [label="gini = 0.0\nsamples = 6\nvalue = [0, 6]\nclass = 1"] ;
234 -> 238 ;
239 [label="x[496] <= 1.5\ngini = 0.431\nsamples = 1364\nvalue = [428, 936]\nclass = 1"] ;
211 -> 239 ;
240 [label="x[494] <= 1.5\ngini = 0.482\nsamples = 377\nvalue = [153, 224]\nclass = 1"] ;
239 -> 240 ;
241 [label="x[282] <= 1.5\ngini = 0.434\nsamples = 160\nvalue = [51, 109]\nclass = 1"] ;
240 -> 241 ;
242 [label="x[441] <= 1.5\ngini = 0.499\nsamples = 56\nvalue = [27, 29]\nclass = 1"] ;
241 -> 242 ;
243 [label="x[354] <= 1.5\ngini = 0.363\nsamples = 21\nvalue = [5, 16]\nclass = 1"] ;
242 -> 243 ;
244 [label="gini = 0.0\nsamples = 11\nvalue = [0, 11]\nclass = 1"] ;
243 -> 244 ;
245 [label="gini = 0.5\nsamples = 10\nvalue = [5, 5]\nclass = 0"] ;
243 -> 245 ;
246 [label="x[423] <= 1.5\ngini = 0.467\nsamples = 35\nvalue = [22, 13]\nclass = 0"] ;
242 -> 246 ;
247 [label="gini = 0.397\nsamples = 11\nvalue = [3, 8]\nclass = 1"] ;
246 -> 247 ;
248 [label="gini = 0.33\nsamples = 24\nvalue = [19, 5]\nclass = 0"] ;
246 -> 248 ;
249 [label="x[437] <= 1.5\ngini = 0.355\nsamples = 104\nvalue = [24, 80]\nclass = 1"] ;
241 -> 249 ;
250 [label="x[298] <= 1.5\ngini = 0.493\nsamples = 34\nvalue = [15, 19]\nclass = 1"] ;
249 -> 250 ;
251 [label="gini = 0.231\nsamples = 15\nvalue = [2, 13]\nclass = 1"] ;
250 -> 251 ;
252 [label="gini = 0.432\nsamples = 19\nvalue = [13, 6]\nclass = 0"] ;
250 -> 252 ;
253 [label="x[420] <= 1.5\ngini = 0.224\nsamples = 70\nvalue = [9, 61]\nclass = 1"] ;
249 -> 253 ;
254 [label="gini = 0.42\nsamples = 20\nvalue = [6, 14]\nclass = 1"] ;
253 -> 254 ;
255 [label="gini = 0.113\nsamples = 50\nvalue = [3, 47]\nclass = 1"] ;
253 -> 255 ;
256 [label="x[386] <= 1.5\ngini = 0.498\nsamples = 217\nvalue = [102, 115]\nclass = 1"] ;
240 -> 256 ;
257 [label="x[258] <= 0.5\ngini = 0.359\nsamples = 47\nvalue = [11, 36]\nclass = 1"] ;
256 -> 257 ;
258 [label="gini = 0.0\nsamples = 3\nvalue = [3, 0]\nclass = 0"] ;
257 -> 258 ;
259 [label="x[226] <= 1.5\ngini = 0.298\nsamples = 44\nvalue = [8, 36]\nclass = 1"] ;
257 -> 259 ;
260 [label="gini = 0.0\nsamples = 20\nvalue = [0, 20]\nclass = 1"] ;
259 -> 260 ;
261 [label="gini = 0.444\nsamples = 24\nvalue = [8, 16]\nclass = 1"] ;
259 -> 261 ;
262 [label="x[288] <= 1.5\ngini = 0.498\nsamples = 170\nvalue = [91, 79]\nclass = 0"] ;
256 -> 262 ;
263 [label="x[498] <= 0.5\ngini = 0.462\nsamples = 47\nvalue = [17, 30]\nclass = 1"] ;
262 -> 263 ;
264 [label="gini = 0.0\nsamples = 3\nvalue = [3, 0]\nclass = 0"] ;
263 -> 264 ;
265 [label="gini = 0.434\nsamples = 44\nvalue = [14, 30]\nclass = 1"] ;
263 -> 265 ;
266 [label="x[204] <= 1.5\ngini = 0.479\nsamples = 123\nvalue = [74, 49]\nclass = 0"] ;
262 -> 266 ;
267 [label="gini = 0.496\nsamples = 55\nvalue = [25, 30]\nclass = 1"] ;
266 -> 267 ;
268 [label="gini = 0.403\nsamples = 68\nvalue = [49, 19]\nclass = 0"] ;
266 -> 268 ;
269 [label="x[495] <= 1.5\ngini = 0.402\nsamples = 987\nvalue = [275, 712]\nclass = 1"] ;
239 -> 269 ;
270 [label="x[226] <= 1.5\ngini = 0.485\nsamples = 196\nvalue = [81, 115]\nclass = 1"] ;
269 -> 270 ;
271 [label="x[323] <= 1.5\ngini = 0.497\nsamples = 76\nvalue = [41, 35]\nclass = 0"] ;
270 -> 271 ;
272 [label="x[229] <= 1.5\ngini = 0.375\nsamples = 20\nvalue = [5, 15]\nclass = 1"] ;
271 -> 272 ;
273 [label="gini = 0.486\nsamples = 12\nvalue = [5, 7]\nclass = 1"] ;
272 -> 273 ;
274 [label="gini = 0.0\nsamples = 8\nvalue = [0, 8]\nclass = 1"] ;
272 -> 274 ;
275 [label="x[138] <= 1.5\ngini = 0.459\nsamples = 56\nvalue = [36, 20]\nclass = 0"] ;
271 -> 275 ;
276 [label="gini = 0.498\nsamples = 43\nvalue = [23, 20]\nclass = 0"] ;
275 -> 276 ;
277 [label="gini = 0.0\nsamples = 13\nvalue = [13, 0]\nclass = 0"] ;
275 -> 277 ;
278 [label="x[485] <= 1.5\ngini = 0.444\nsamples = 120\nvalue = [40, 80]\nclass = 1"] ;
270 -> 278 ;
279 [label="x[293] <= 1.5\ngini = 0.483\nsamples = 27\nvalue = [16, 11]\nclass = 0"] ;
278 -> 279 ;
280 [label="gini = 0.0\nsamples = 5\nvalue = [0, 5]\nclass = 1"] ;
279 -> 280 ;
281 [label="gini = 0.397\nsamples = 22\nvalue = [16, 6]\nclass = 0"] ;
279 -> 281 ;
282 [label="x[455] <= 1.5\ngini = 0.383\nsamples = 93\nvalue = [24, 69]\nclass = 1"] ;
278 -> 282 ;
283 [label="gini = 0.499\nsamples = 25\nvalue = [13, 12]\nclass = 0"] ;
282 -> 283 ;
284 [label="gini = 0.271\nsamples = 68\nvalue = [11, 57]\nclass = 1"] ;
282 -> 284 ;
285 [label="x[337] <= 0.5\ngini = 0.37\nsamples = 791\nvalue = [194, 597]\nclass = 1"] ;
269 -> 285 ;
286 [label="x[133] <= 1.5\ngini = 0.444\nsamples = 12\nvalue = [8, 4]\nclass = 0"] ;
285 -> 286 ;
287 [label="gini = 0.0\nsamples = 8\nvalue = [8, 0]\nclass = 0"] ;
286 -> 287 ;
288 [label="gini = 0.0\nsamples = 4\nvalue = [0, 4]\nclass = 1"] ;
286 -> 288 ;
289 [label="x[439] <= 1.5\ngini = 0.364\nsamples = 779\nvalue = [186, 593]\nclass = 1"] ;
285 -> 289 ;
290 [label="x[497] <= 0.5\ngini = 0.432\nsamples = 225\nvalue = [71, 154]\nclass = 1"] ;
289 -> 290 ;
291 [label="gini = 0.32\nsamples = 10\nvalue = [8, 2]\nclass = 0"] ;
290 -> 291 ;
292 [label="gini = 0.414\nsamples = 215\nvalue = [63, 152]\nclass = 1"] ;
290 -> 292 ;
293 [label="x[209] <= 0.5\ngini = 0.329\nsamples = 554\nvalue = [115, 439]\nclass = 1"] ;
289 -> 293 ;
294 [label="gini = 0.449\nsamples = 103\nvalue = [35, 68]\nclass = 1"] ;
293 -> 294 ;
295 [label="gini = 0.292\nsamples = 451\nvalue = [80, 371]\nclass = 1"] ;
293 -> 295 ;
296 [label="x[463] <= 0.5\ngini = 0.489\nsamples = 2543\nvalue = [1464, 1079]\nclass = 0"] ;
210 -> 296 ;
297 [label="x[460] <= 1.5\ngini = 0.398\nsamples = 73\nvalue = [20, 53]\nclass = 1"] ;
296 -> 297 ;
298 [label="x[481] <= 1.0\ngini = 0.102\nsamples = 37\nvalue = [2, 35]\nclass = 1"] ;
297 -> 298 ;
299 [label="gini = 0.0\nsamples = 1\nvalue = [1, 0]\nclass = 0"] ;
298 -> 299 ;
300 [label="x[450] <= 1.5\ngini = 0.054\nsamples = 36\nvalue = [1, 35]\nclass = 1"] ;
298 -> 300 ;
301 [label="x[256] <= 1.5\ngini = 0.444\nsamples = 3\nvalue = [1, 2]\nclass = 1"] ;
300 -> 301 ;
302 [label="gini = 0.0\nsamples = 2\nvalue = [0, 2]\nclass = 1"] ;
301 -> 302 ;
303 [label="gini = 0.0\nsamples = 1\nvalue = [1, 0]\nclass = 0"] ;
301 -> 303 ;
304 [label="gini = 0.0\nsamples = 33\nvalue = [0, 33]\nclass = 1"] ;
300 -> 304 ;
305 [label="x[454] <= 1.5\ngini = 0.5\nsamples = 36\nvalue = [18, 18]\nclass = 0"] ;
297 -> 305 ;
306 [label="x[114] <= 1.5\ngini = 0.245\nsamples = 14\nvalue = [2, 12]\nclass = 1"] ;
305 -> 306 ;
307 [label="x[430] <= 0.5\ngini = 0.142\nsamples = 13\nvalue = [1, 12]\nclass = 1"] ;
306 -> 307 ;
308 [label="gini = 0.0\nsamples = 1\nvalue = [1, 0]\nclass = 0"] ;
307 -> 308 ;
309 [label="gini = 0.0\nsamples = 12\nvalue = [0, 12]\nclass = 1"] ;
307 -> 309 ;
310 [label="gini = 0.0\nsamples = 1\nvalue = [1, 0]\nclass = 0"] ;
306 -> 310 ;
311 [label="x[305] <= 0.5\ngini = 0.397\nsamples = 22\nvalue = [16, 6]\nclass = 0"] ;
305 -> 311 ;
312 [label="gini = 0.0\nsamples = 3\nvalue = [0, 3]\nclass = 1"] ;
311 -> 312 ;
313 [label="x[186] <= 1.5\ngini = 0.266\nsamples = 19\nvalue = [16, 3]\nclass = 0"] ;
311 -> 313 ;
314 [label="gini = 0.0\nsamples = 14\nvalue = [14, 0]\nclass = 0"] ;
313 -> 314 ;
315 [label="x[102] <= 1.0\ngini = 0.48\nsamples = 5\nvalue = [2, 3]\nclass = 1"] ;
313 -> 315 ;
316 [label="gini = 0.0\nsamples = 3\nvalue = [0, 3]\nclass = 1"] ;
315 -> 316 ;
317 [label="gini = 0.0\nsamples = 2\nvalue = [2, 0]\nclass = 0"] ;
315 -> 317 ;
318 [label="x[377] <= 0.5\ngini = 0.486\nsamples = 2470\nvalue = [1444, 1026]\nclass = 0"] ;
296 -> 318 ;
319 [label="x[456] <= 1.5\ngini = 0.387\nsamples = 156\nvalue = [115, 41]\nclass = 0"] ;
318 -> 319 ;
320 [label="x[287] <= 1.5\ngini = 0.483\nsamples = 49\nvalue = [29, 20]\nclass = 0"] ;
319 -> 320 ;
321 [label="x[400] <= 0.5\ngini = 0.499\nsamples = 42\nvalue = [22, 20]\nclass = 0"] ;
320 -> 321 ;
322 [label="gini = 0.0\nsamples = 6\nvalue = [6, 0]\nclass = 0"] ;
321 -> 322 ;
323 [label="x[430] <= 1.5\ngini = 0.494\nsamples = 36\nvalue = [16, 20]\nclass = 1"] ;
321 -> 323 ;
324 [label="gini = 0.0\nsamples = 8\nvalue = [0, 8]\nclass = 1"] ;
323 -> 324 ;
325 [label="gini = 0.49\nsamples = 28\nvalue = [16, 12]\nclass = 0"] ;
323 -> 325 ;
326 [label="gini = 0.0\nsamples = 7\nvalue = [7, 0]\nclass = 0"] ;
320 -> 326 ;
327 [label="x[199] <= 1.5\ngini = 0.315\nsamples = 107\nvalue = [86, 21]\nclass = 0"] ;
319 -> 327 ;
328 [label="x[452] <= 2.5\ngini = 0.268\nsamples = 94\nvalue = [79, 15]\nclass = 0"] ;
327 -> 328 ;
329 [label="x[474] <= 1.5\ngini = 0.256\nsamples = 93\nvalue = [79, 14]\nclass = 0"] ;
328 -> 329 ;
330 [label="gini = 0.408\nsamples = 28\nvalue = [20, 8]\nclass = 0"] ;
329 -> 330 ;
331 [label="gini = 0.168\nsamples = 65\nvalue = [59, 6]\nclass = 0"] ;
329 -> 331 ;
332 [label="gini = 0.0\nsamples = 1\nvalue = [0, 1]\nclass = 1"] ;
328 -> 332 ;
333 [label="x[353] <= 1.5\ngini = 0.497\nsamples = 13\nvalue = [7, 6]\nclass = 0"] ;
327 -> 333 ;
334 [label="gini = 0.0\nsamples = 4\nvalue = [0, 4]\nclass = 1"] ;
333 -> 334 ;
335 [label="x[330] <= 1.5\ngini = 0.346\nsamples = 9\nvalue = [7, 2]\nclass = 0"] ;
333 -> 335 ;
336 [label="gini = 0.0\nsamples = 2\nvalue = [0, 2]\nclass = 1"] ;
335 -> 336 ;
337 [label="gini = 0.0\nsamples = 7\nvalue = [7, 0]\nclass = 0"] ;
335 -> 337 ;
338 [label="x[163] <= 0.5\ngini = 0.489\nsamples = 2314\nvalue = [1329, 985]\nclass = 0"] ;
318 -> 338 ;
339 [label="x[489] <= 0.5\ngini = 0.497\nsamples = 1229\nvalue = [658, 571]\nclass = 0"] ;
338 -> 339 ;
340 [label="x[490] <= 1.5\ngini = 0.358\nsamples = 30\nvalue = [7, 23]\nclass = 1"] ;
339 -> 340 ;
341 [label="x[234] <= 1.5\ngini = 0.095\nsamples = 20\nvalue = [1, 19]\nclass = 1"] ;
340 -> 341 ;
342 [label="gini = 0.0\nsamples = 19\nvalue = [0, 19]\nclass = 1"] ;
341 -> 342 ;
343 [label="gini = 0.0\nsamples = 1\nvalue = [1, 0]\nclass = 0"] ;
341 -> 343 ;
344 [label="x[197] <= 0.5\ngini = 0.48\nsamples = 10\nvalue = [6, 4]\nclass = 0"] ;
340 -> 344 ;
345 [label="gini = 0.0\nsamples = 5\nvalue = [5, 0]\nclass = 0"] ;
344 -> 345 ;
346 [label="gini = 0.32\nsamples = 5\nvalue = [1, 4]\nclass = 1"] ;
344 -> 346 ;
347 [label="x[486] <= 0.5\ngini = 0.496\nsamples = 1199\nvalue = [651, 548]\nclass = 0"] ;
339 -> 347 ;
348 [label="x[234] <= 1.5\ngini = 0.375\nsamples = 32\nvalue = [8, 24]\nclass = 1"] ;
347 -> 348 ;
349 [label="gini = 0.198\nsamples = 27\nvalue = [3, 24]\nclass = 1"] ;
348 -> 349 ;
350 [label="gini = 0.0\nsamples = 5\nvalue = [5, 0]\nclass = 0"] ;
348 -> 350 ;
351 [label="x[479] <= 0.5\ngini = 0.495\nsamples = 1167\nvalue = [643, 524]\nclass = 0"] ;
347 -> 351 ;
352 [label="gini = 0.32\nsamples = 20\nvalue = [4, 16]\nclass = 1"] ;
351 -> 352 ;
353 [label="gini = 0.493\nsamples = 1147\nvalue = [639, 508]\nclass = 0"] ;
351 -> 353 ;
354 [label="x[69] <= 1.5\ngini = 0.472\nsamples = 1085\nvalue = [671, 414]\nclass = 0"] ;
338 -> 354 ;
355 [label="x[99] <= 1.5\ngini = 0.455\nsamples = 814\nvalue = [529, 285]\nclass = 0"] ;
354 -> 355 ;
356 [label="x[204] <= 1.5\ngini = 0.476\nsamples = 544\nvalue = [332, 212]\nclass = 0"] ;
355 -> 356 ;
357 [label="gini = 0.5\nsamples = 162\nvalue = [82, 80]\nclass = 0"] ;
356 -> 357 ;
358 [label="gini = 0.452\nsamples = 382\nvalue = [250, 132]\nclass = 0"] ;
356 -> 358 ;
359 [label="x[333] <= 2.5\ngini = 0.395\nsamples = 270\nvalue = [197, 73]\nclass = 0"] ;
355 -> 359 ;
360 [label="gini = 0.382\nsamples = 264\nvalue = [196, 68]\nclass = 0"] ;
359 -> 360 ;
361 [label="gini = 0.278\nsamples = 6\nvalue = [1, 5]\nclass = 1"] ;
359 -> 361 ;
362 [label="x[464] <= 1.5\ngini = 0.499\nsamples = 271\nvalue = [142, 129]\nclass = 0"] ;
354 -> 362 ;
363 [label="x[215] <= 1.5\ngini = 0.432\nsamples = 73\nvalue = [50, 23]\nclass = 0"] ;
362 -> 363 ;
364 [label="gini = 0.165\nsamples = 22\nvalue = [20, 2]\nclass = 0"] ;
363 -> 364 ;
365 [label="gini = 0.484\nsamples = 51\nvalue = [30, 21]\nclass = 0"] ;
363 -> 365 ;
366 [label="x[290] <= 1.5\ngini = 0.498\nsamples = 198\nvalue = [92, 106]\nclass = 1"] ;
362 -> 366 ;
367 [label="gini = 0.4\nsamples = 47\nvalue = [13, 34]\nclass = 1"] ;
366 -> 367 ;
368 [label="gini = 0.499\nsamples = 151\nvalue = [79, 72]\nclass = 0"] ;
366 -> 368 ;
369 [label="x[419] <= 0.5\ngini = 0.469\nsamples = 3931\nvalue = [2452, 1479]\nclass = 0"] ;
1 -> 369 ;
370 [label="x[406] <= 1.5\ngini = 0.452\nsamples = 58\nvalue = [20, 38]\nclass = 1"] ;
369 -> 370 ;
371 [label="x[143] <= 0.5\ngini = 0.08\nsamples = 24\nvalue = [1, 23]\nclass = 1"] ;
370 -> 371 ;
372 [label="x[289] <= 1.0\ngini = 0.444\nsamples = 3\nvalue = [1, 2]\nclass = 1"] ;
371 -> 372 ;
373 [label="gini = 0.0\nsamples = 2\nvalue = [0, 2]\nclass = 1"] ;
372 -> 373 ;
374 [label="gini = 0.0\nsamples = 1\nvalue = [1, 0]\nclass = 0"] ;
372 -> 374 ;
375 [label="gini = 0.0\nsamples = 21\nvalue = [0, 21]\nclass = 1"] ;
371 -> 375 ;
376 [label="x[282] <= 1.5\ngini = 0.493\nsamples = 34\nvalue = [19, 15]\nclass = 0"] ;
370 -> 376 ;
377 [label="x[372] <= 0.5\ngini = 0.198\nsamples = 9\nvalue = [1, 8]\nclass = 1"] ;
376 -> 377 ;
378 [label="gini = 0.0\nsamples = 1\nvalue = [1, 0]\nclass = 0"] ;
377 -> 378 ;
379 [label="gini = 0.0\nsamples = 8\nvalue = [0, 8]\nclass = 1"] ;
377 -> 379 ;
380 [label="x[155] <= 1.5\ngini = 0.403\nsamples = 25\nvalue = [18, 7]\nclass = 0"] ;
376 -> 380 ;
381 [label="x[239] <= 1.5\ngini = 0.375\nsamples = 8\nvalue = [2, 6]\nclass = 1"] ;
380 -> 381 ;
382 [label="gini = 0.0\nsamples = 2\nvalue = [2, 0]\nclass = 0"] ;
381 -> 382 ;
383 [label="gini = 0.0\nsamples = 6\nvalue = [0, 6]\nclass = 1"] ;
381 -> 383 ;
384 [label="x[470] <= 0.5\ngini = 0.111\nsamples = 17\nvalue = [16, 1]\nclass = 0"] ;
380 -> 384 ;
385 [label="gini = 0.0\nsamples = 1\nvalue = [0, 1]\nclass = 1"] ;
384 -> 385 ;
386 [label="gini = 0.0\nsamples = 16\nvalue = [16, 0]\nclass = 0"] ;
384 -> 386 ;
387 [label="x[467] <= 2.5\ngini = 0.467\nsamples = 3873\nvalue = [2432, 1441]\nclass = 0"] ;
369 -> 387 ;
388 [label="x[380] <= 2.5\ngini = 0.466\nsamples = 3859\nvalue = [2431, 1428]\nclass = 0"] ;
387 -> 388 ;
389 [label="x[264] <= 2.5\ngini = 0.465\nsamples = 3843\nvalue = [2429, 1414]\nclass = 0"] ;
388 -> 389 ;
390 [label="x[288] <= 2.5\ngini = 0.464\nsamples = 3827\nvalue = [2427, 1400]\nclass = 0"] ;
389 -> 390 ;
391 [label="x[367] <= 0.5\ngini = 0.463\nsamples = 3810\nvalue = [2424, 1386]\nclass = 0"] ;
390 -> 391 ;
392 [label="x[106] <= 1.5\ngini = 0.472\nsamples = 55\nvalue = [21, 34]\nclass = 1"] ;
391 -> 392 ;
393 [label="x[72] <= 2.5\ngini = 0.165\nsamples = 22\nvalue = [2, 20]\nclass = 1"] ;
392 -> 393 ;
394 [label="gini = 0.091\nsamples = 21\nvalue = [1, 20]\nclass = 1"] ;
393 -> 394 ;
395 [label="gini = 0.0\nsamples = 1\nvalue = [1, 0]\nclass = 0"] ;
393 -> 395 ;
396 [label="x[313] <= 1.5\ngini = 0.489\nsamples = 33\nvalue = [19, 14]\nclass = 0"] ;
392 -> 396 ;
397 [label="gini = 0.165\nsamples = 11\nvalue = [10, 1]\nclass = 0"] ;
396 -> 397 ;
398 [label="gini = 0.483\nsamples = 22\nvalue = [9, 13]\nclass = 1"] ;
396 -> 398 ;
399 [label="x[2] <= 1.5\ngini = 0.461\nsamples = 3755\nvalue = [2403, 1352]\nclass = 0"] ;
391 -> 399 ;
400 [label="x[1] <= 1.5\ngini = 0.483\nsamples = 989\nvalue = [585, 404]\nclass = 0"] ;
399 -> 400 ;
401 [label="gini = 0.5\nsamples = 389\nvalue = [199, 190]\nclass = 0"] ;
400 -> 401 ;
402 [label="gini = 0.459\nsamples = 600\nvalue = [386, 214]\nclass = 0"] ;
400 -> 402 ;
403 [label="x[1] <= 2.5\ngini = 0.451\nsamples = 2766\nvalue = [1818, 948]\nclass = 0"] ;
399 -> 403 ;
404 [label="gini = 0.454\nsamples = 2694\nvalue = [1754, 940]\nclass = 0"] ;
403 -> 404 ;
405 [label="gini = 0.198\nsamples = 72\nvalue = [64, 8]\nclass = 0"] ;
403 -> 405 ;
406 [label="x[367] <= 1.5\ngini = 0.291\nsamples = 17\nvalue = [3, 14]\nclass = 1"] ;
390 -> 406 ;
407 [label="x[375] <= 1.5\ngini = 0.375\nsamples = 4\nvalue = [3, 1]\nclass = 0"] ;
406 -> 407 ;
408 [label="gini = 0.0\nsamples = 3\nvalue = [3, 0]\nclass = 0"] ;
407 -> 408 ;
409 [label="gini = 0.0\nsamples = 1\nvalue = [0, 1]\nclass = 1"] ;
407 -> 409 ;
410 [label="gini = 0.0\nsamples = 13\nvalue = [0, 13]\nclass = 1"] ;
406 -> 410 ;
411 [label="x[444] <= 1.5\ngini = 0.219\nsamples = 16\nvalue = [2, 14]\nclass = 1"] ;
389 -> 411 ;
412 [label="x[246] <= 1.5\ngini = 0.444\nsamples = 3\nvalue = [2, 1]\nclass = 0"] ;
411 -> 412 ;
413 [label="gini = 0.0\nsamples = 1\nvalue = [0, 1]\nclass = 1"] ;
412 -> 413 ;
414 [label="gini = 0.0\nsamples = 2\nvalue = [2, 0]\nclass = 0"] ;
412 -> 414 ;
415 [label="gini = 0.0\nsamples = 13\nvalue = [0, 13]\nclass = 1"] ;
411 -> 415 ;
416 [label="x[171] <= 1.5\ngini = 0.219\nsamples = 16\nvalue = [2, 14]\nclass = 1"] ;
388 -> 416 ;
417 [label="x[439] <= 1.5\ngini = 0.444\nsamples = 3\nvalue = [2, 1]\nclass = 0"] ;
416 -> 417 ;
418 [label="gini = 0.0\nsamples = 2\nvalue = [2, 0]\nclass = 0"] ;
417 -> 418 ;
419 [label="gini = 0.0\nsamples = 1\nvalue = [0, 1]\nclass = 1"] ;
417 -> 419 ;
420 [label="gini = 0.0\nsamples = 13\nvalue = [0, 13]\nclass = 1"] ;
416 -> 420 ;
421 [label="x[236] <= 1.5\ngini = 0.133\nsamples = 14\nvalue = [1, 13]\nclass = 1"] ;
387 -> 421 ;
422 [label="gini = 0.0\nsamples = 1\nvalue = [1, 0]\nclass = 0"] ;
421 -> 422 ;
423 [label="gini = 0.0\nsamples = 13\nvalue = [0, 13]\nclass = 1"] ;
421 -> 423 ;
424 [label="x[497] <= 1.5\ngini = 0.475\nsamples = 21735\nvalue = [13279, 8456]\nclass = 0"] ;
0 -> 424 [labeldistance=2.5, labelangle=-45, headlabel="False"] ;
425 [label="x[113] <= 0.5\ngini = 0.495\nsamples = 5629\nvalue = [3090, 2539]\nclass = 0"] ;
424 -> 425 ;
426 [label="x[496] <= 1.5\ngini = 0.495\nsamples = 2120\nvalue = [950, 1170]\nclass = 1"] ;
425 -> 426 ;
427 [label="x[274] <= 1.5\ngini = 0.445\nsamples = 859\nvalue = [287, 572]\nclass = 1"] ;
426 -> 427 ;
428 [label="x[494] <= 1.5\ngini = 0.491\nsamples = 417\nvalue = [180, 237]\nclass = 1"] ;
427 -> 428 ;
429 [label="x[431] <= 1.5\ngini = 0.436\nsamples = 165\nvalue = [53, 112]\nclass = 1"] ;
428 -> 429 ;
430 [label="x[318] <= 1.5\ngini = 0.252\nsamples = 54\nvalue = [8, 46]\nclass = 1"] ;
429 -> 430 ;
431 [label="x[377] <= 0.5\ngini = 0.13\nsamples = 43\nvalue = [3, 40]\nclass = 1"] ;
430 -> 431 ;
432 [label="x[493] <= 1.5\ngini = 0.42\nsamples = 10\nvalue = [3, 7]\nclass = 1"] ;
431 -> 432 ;
433 [label="gini = 0.0\nsamples = 7\nvalue = [0, 7]\nclass = 1"] ;
432 -> 433 ;
434 [label="gini = 0.0\nsamples = 3\nvalue = [3, 0]\nclass = 0"] ;
432 -> 434 ;
435 [label="gini = 0.0\nsamples = 33\nvalue = [0, 33]\nclass = 1"] ;
431 -> 435 ;
436 [label="x[287] <= 1.5\ngini = 0.496\nsamples = 11\nvalue = [5, 6]\nclass = 1"] ;
430 -> 436 ;
437 [label="x[324] <= 2.5\ngini = 0.278\nsamples = 6\nvalue = [5, 1]\nclass = 0"] ;
436 -> 437 ;
438 [label="gini = 0.0\nsamples = 5\nvalue = [5, 0]\nclass = 0"] ;
437 -> 438 ;
439 [label="gini = 0.0\nsamples = 1\nvalue = [0, 1]\nclass = 1"] ;
437 -> 439 ;
440 [label="gini = 0.0\nsamples = 5\nvalue = [0, 5]\nclass = 1"] ;
436 -> 440 ;
441 [label="x[341] <= 1.5\ngini = 0.482\nsamples = 111\nvalue = [45, 66]\nclass = 1"] ;
429 -> 441 ;
442 [label="x[465] <= 1.5\ngini = 0.478\nsamples = 43\nvalue = [26, 17]\nclass = 0"] ;
441 -> 442 ;
443 [label="x[398] <= 1.5\ngini = 0.426\nsamples = 13\nvalue = [4, 9]\nclass = 1"] ;
442 -> 443 ;
444 [label="gini = 0.444\nsamples = 6\nvalue = [4, 2]\nclass = 0"] ;
443 -> 444 ;
445 [label="gini = 0.0\nsamples = 7\nvalue = [0, 7]\nclass = 1"] ;
443 -> 445 ;
446 [label="x[496] <= 0.5\ngini = 0.391\nsamples = 30\nvalue = [22, 8]\nclass = 0"] ;
442 -> 446 ;
447 [label="gini = 0.0\nsamples = 3\nvalue = [0, 3]\nclass = 1"] ;
446 -> 447 ;
448 [label="gini = 0.302\nsamples = 27\nvalue = [22, 5]\nclass = 0"] ;
446 -> 448 ;
449 [label="x[413] <= 1.5\ngini = 0.403\nsamples = 68\nvalue = [19, 49]\nclass = 1"] ;
441 -> 449 ;
450 [label="x[415] <= 1.5\ngini = 0.397\nsamples = 11\nvalue = [8, 3]\nclass = 0"] ;
449 -> 450 ;
451 [label="gini = 0.375\nsamples = 4\nvalue = [1, 3]\nclass = 1"] ;
450 -> 451 ;
452 [label="gini = 0.0\nsamples = 7\nvalue = [7, 0]\nclass = 0"] ;
450 -> 452 ;
453 [label="x[407] <= 1.5\ngini = 0.311\nsamples = 57\nvalue = [11, 46]\nclass = 1"] ;
449 -> 453 ;
454 [label="gini = 0.49\nsamples = 14\nvalue = [6, 8]\nclass = 1"] ;
453 -> 454 ;
455 [label="gini = 0.206\nsamples = 43\nvalue = [5, 38]\nclass = 1"] ;
453 -> 455 ;
456 [label="x[369] <= 0.5\ngini = 0.5\nsamples = 252\nvalue = [127, 125]\nclass = 0"] ;
428 -> 456 ;
457 [label="x[490] <= 0.5\ngini = 0.398\nsamples = 51\nvalue = [37, 14]\nclass = 0"] ;
456 -> 457 ;
458 [label="gini = 0.0\nsamples = 3\nvalue = [0, 3]\nclass = 1"] ;
457 -> 458 ;
459 [label="x[420] <= 0.5\ngini = 0.353\nsamples = 48\nvalue = [37, 11]\nclass = 0"] ;
457 -> 459 ;
460 [label="gini = 0.0\nsamples = 2\nvalue = [0, 2]\nclass = 1"] ;
459 -> 460 ;
461 [label="x[441] <= 1.5\ngini = 0.315\nsamples = 46\nvalue = [37, 9]\nclass = 0"] ;
459 -> 461 ;
462 [label="gini = 0.5\nsamples = 10\nvalue = [5, 5]\nclass = 0"] ;
461 -> 462 ;
463 [label="gini = 0.198\nsamples = 36\nvalue = [32, 4]\nclass = 0"] ;
461 -> 463 ;
464 [label="x[486] <= 1.5\ngini = 0.495\nsamples = 201\nvalue = [90, 111]\nclass = 1"] ;
456 -> 464 ;
465 [label="x[493] <= 1.5\ngini = 0.465\nsamples = 57\nvalue = [36, 21]\nclass = 0"] ;
464 -> 465 ;
466 [label="x[445] <= 1.5\ngini = 0.432\nsamples = 19\nvalue = [6, 13]\nclass = 1"] ;
465 -> 466 ;
467 [label="gini = 0.408\nsamples = 7\nvalue = [5, 2]\nclass = 0"] ;
466 -> 467 ;
468 [label="gini = 0.153\nsamples = 12\nvalue = [1, 11]\nclass = 1"] ;
466 -> 468 ;
469 [label="x[153] <= 1.5\ngini = 0.332\nsamples = 38\nvalue = [30, 8]\nclass = 0"] ;
465 -> 469 ;
470 [label="gini = 0.208\nsamples = 34\nvalue = [30, 4]\nclass = 0"] ;
469 -> 470 ;
471 [label="gini = 0.0\nsamples = 4\nvalue = [0, 4]\nclass = 1"] ;
469 -> 471 ;
472 [label="x[133] <= 1.5\ngini = 0.469\nsamples = 144\nvalue = [54, 90]\nclass = 1"] ;
464 -> 472 ;
473 [label="x[461] <= 1.5\ngini = 0.446\nsamples = 131\nvalue = [44, 87]\nclass = 1"] ;
472 -> 473 ;
474 [label="gini = 0.496\nsamples = 33\nvalue = [18, 15]\nclass = 0"] ;
473 -> 474 ;
475 [label="gini = 0.39\nsamples = 98\nvalue = [26, 72]\nclass = 1"] ;
473 -> 475 ;
476 [label="x[282] <= 1.5\ngini = 0.355\nsamples = 13\nvalue = [10, 3]\nclass = 0"] ;
472 -> 476 ;
477 [label="gini = 0.375\nsamples = 4\nvalue = [1, 3]\nclass = 1"] ;
476 -> 477 ;
478 [label="gini = 0.0\nsamples = 9\nvalue = [9, 0]\nclass = 0"] ;
476 -> 478 ;
479 [label="x[184] <= 1.5\ngini = 0.367\nsamples = 442\nvalue = [107, 335]\nclass = 1"] ;
427 -> 479 ;
480 [label="x[437] <= 1.5\ngini = 0.423\nsamples = 267\nvalue = [81, 186]\nclass = 1"] ;
479 -> 480 ;
481 [label="x[463] <= 1.5\ngini = 0.498\nsamples = 60\nvalue = [28, 32]\nclass = 1"] ;
480 -> 481 ;
482 [label="x[295] <= 2.5\ngini = 0.298\nsamples = 22\nvalue = [18, 4]\nclass = 0"] ;
481 -> 482 ;
483 [label="x[284] <= 0.5\ngini = 0.18\nsamples = 20\nvalue = [18, 2]\nclass = 0"] ;
482 -> 483 ;
484 [label="gini = 0.0\nsamples = 1\nvalue = [0, 1]\nclass = 1"] ;
483 -> 484 ;
485 [label="gini = 0.1\nsamples = 19\nvalue = [18, 1]\nclass = 0"] ;
483 -> 485 ;
486 [label="gini = 0.0\nsamples = 2\nvalue = [0, 2]\nclass = 1"] ;
482 -> 486 ;
487 [label="x[250] <= 1.5\ngini = 0.388\nsamples = 38\nvalue = [10, 28]\nclass = 1"] ;
481 -> 487 ;
488 [label="x[305] <= 1.5\ngini = 0.5\nsamples = 14\nvalue = [7, 7]\nclass = 0"] ;
487 -> 488 ;
489 [label="gini = 0.0\nsamples = 5\nvalue = [5, 0]\nclass = 0"] ;
488 -> 489 ;
490 [label="gini = 0.346\nsamples = 9\nvalue = [2, 7]\nclass = 1"] ;
488 -> 490 ;
491 [label="x[430] <= 1.5\ngini = 0.219\nsamples = 24\nvalue = [3, 21]\nclass = 1"] ;
487 -> 491 ;
492 [label="gini = 0.49\nsamples = 7\nvalue = [3, 4]\nclass = 1"] ;
491 -> 492 ;
493 [label="gini = 0.0\nsamples = 17\nvalue = [0, 17]\nclass = 1"] ;
491 -> 493 ;
494 [label="x[298] <= 1.5\ngini = 0.381\nsamples = 207\nvalue = [53, 154]\nclass = 1"] ;
480 -> 494 ;
495 [label="x[275] <= 1.5\ngini = 0.493\nsamples = 43\nvalue = [19, 24]\nclass = 1"] ;
494 -> 495 ;
496 [label="x[312] <= 0.5\ngini = 0.26\nsamples = 13\nvalue = [2, 11]\nclass = 1"] ;
495 -> 496 ;
497 [label="gini = 0.0\nsamples = 2\nvalue = [2, 0]\nclass = 0"] ;
496 -> 497 ;
498 [label="gini = 0.0\nsamples = 11\nvalue = [0, 11]\nclass = 1"] ;
496 -> 498 ;
499 [label="x[314] <= 1.5\ngini = 0.491\nsamples = 30\nvalue = [17, 13]\nclass = 0"] ;
495 -> 499 ;
500 [label="gini = 0.245\nsamples = 7\nvalue = [1, 6]\nclass = 1"] ;
499 -> 500 ;
501 [label="gini = 0.423\nsamples = 23\nvalue = [16, 7]\nclass = 0"] ;
499 -> 501 ;
502 [label="x[490] <= 1.5\ngini = 0.329\nsamples = 164\nvalue = [34, 130]\nclass = 1"] ;
494 -> 502 ;
503 [label="x[486] <= 1.5\ngini = 0.478\nsamples = 38\nvalue = [15, 23]\nclass = 1"] ;
502 -> 503 ;
504 [label="gini = 0.346\nsamples = 9\nvalue = [7, 2]\nclass = 0"] ;
503 -> 504 ;
505 [label="gini = 0.4\nsamples = 29\nvalue = [8, 21]\nclass = 1"] ;
503 -> 505 ;
506 [label="x[473] <= 1.5\ngini = 0.256\nsamples = 126\nvalue = [19, 107]\nclass = 1"] ;
502 -> 506 ;
507 [label="gini = 0.457\nsamples = 34\nvalue = [12, 22]\nclass = 1"] ;
506 -> 507 ;
508 [label="gini = 0.141\nsamples = 92\nvalue = [7, 85]\nclass = 1"] ;
506 -> 508 ;
509 [label="x[221] <= 0.5\ngini = 0.253\nsamples = 175\nvalue = [26, 149]\nclass = 1"] ;
479 -> 509 ;
510 [label="gini = 0.0\nsamples = 3\nvalue = [3, 0]\nclass = 0"] ;
509 -> 510 ;
511 [label="x[288] <= 0.5\ngini = 0.232\nsamples = 172\nvalue = [23, 149]\nclass = 1"] ;
509 -> 511 ;
512 [label="x[277] <= 1.5\ngini = 0.375\nsamples = 4\nvalue = [3, 1]\nclass = 0"] ;
511 -> 512 ;
513 [label="gini = 0.0\nsamples = 3\nvalue = [3, 0]\nclass = 0"] ;
512 -> 513 ;
514 [label="gini = 0.0\nsamples = 1\nvalue = [0, 1]\nclass = 1"] ;
512 -> 514 ;
515 [label="x[450] <= 0.5\ngini = 0.21\nsamples = 168\nvalue = [20, 148]\nclass = 1"] ;
511 -> 515 ;
516 [label="gini = 0.0\nsamples = 2\nvalue = [2, 0]\nclass = 0"] ;
515 -> 516 ;
517 [label="x[484] <= 0.5\ngini = 0.193\nsamples = 166\nvalue = [18, 148]\nclass = 1"] ;
515 -> 517 ;
518 [label="gini = 0.0\nsamples = 2\nvalue = [2, 0]\nclass = 0"] ;
517 -> 518 ;
519 [label="gini = 0.176\nsamples = 164\nvalue = [16, 148]\nclass = 1"] ;
517 -> 519 ;
520 [label="x[499] <= 1.5\ngini = 0.499\nsamples = 1261\nvalue = [663, 598]\nclass = 0"] ;
426 -> 520 ;
521 [label="x[139] <= 1.5\ngini = 0.47\nsamples = 273\nvalue = [103, 170]\nclass = 1"] ;
520 -> 521 ;
522 [label="x[241] <= 1.5\ngini = 0.451\nsamples = 245\nvalue = [84, 161]\nclass = 1"] ;
521 -> 522 ;
523 [label="x[428] <= 1.5\ngini = 0.487\nsamples = 157\nvalue = [66, 91]\nclass = 1"] ;
522 -> 523 ;
524 [label="x[396] <= 1.5\ngini = 0.375\nsamples = 48\nvalue = [12, 36]\nclass = 1"] ;
523 -> 524 ;
525 [label="gini = 0.0\nsamples = 18\nvalue = [0, 18]\nclass = 1"] ;
524 -> 525 ;
526 [label="x[240] <= 1.5\ngini = 0.48\nsamples = 30\nvalue = [12, 18]\nclass = 1"] ;
524 -> 526 ;
527 [label="gini = 0.413\nsamples = 24\nvalue = [7, 17]\nclass = 1"] ;
526 -> 527 ;
528 [label="gini = 0.278\nsamples = 6\nvalue = [5, 1]\nclass = 0"] ;
526 -> 528 ;
529 [label="x[475] <= 1.5\ngini = 0.5\nsamples = 109\nvalue = [54, 55]\nclass = 1"] ;
523 -> 529 ;
530 [label="x[286] <= 1.5\ngini = 0.438\nsamples = 34\nvalue = [23, 11]\nclass = 0"] ;
529 -> 530 ;
531 [label="gini = 0.26\nsamples = 26\nvalue = [22, 4]\nclass = 0"] ;
530 -> 531 ;
532 [label="gini = 0.219\nsamples = 8\nvalue = [1, 7]\nclass = 1"] ;
530 -> 532 ;
533 [label="x[395] <= 1.5\ngini = 0.485\nsamples = 75\nvalue = [31, 44]\nclass = 1"] ;
529 -> 533 ;
534 [label="gini = 0.432\nsamples = 19\nvalue = [13, 6]\nclass = 0"] ;
533 -> 534 ;
535 [label="gini = 0.436\nsamples = 56\nvalue = [18, 38]\nclass = 1"] ;
533 -> 535 ;
536 [label="x[499] <= 0.5\ngini = 0.325\nsamples = 88\nvalue = [18, 70]\nclass = 1"] ;
522 -> 536 ;
537 [label="x[471] <= 1.5\ngini = 0.32\nsamples = 5\nvalue = [4, 1]\nclass = 0"] ;
536 -> 537 ;
538 [label="gini = 0.0\nsamples = 1\nvalue = [0, 1]\nclass = 1"] ;
537 -> 538 ;
539 [label="gini = 0.0\nsamples = 4\nvalue = [4, 0]\nclass = 0"] ;
537 -> 539 ;
540 [label="x[312] <= 0.5\ngini = 0.28\nsamples = 83\nvalue = [14, 69]\nclass = 1"] ;
536 -> 540 ;
541 [label="gini = 0.0\nsamples = 2\nvalue = [2, 0]\nclass = 0"] ;
540 -> 541 ;
542 [label="x[484] <= 0.5\ngini = 0.252\nsamples = 81\nvalue = [12, 69]\nclass = 1"] ;
540 -> 542 ;
543 [label="gini = 0.0\nsamples = 2\nvalue = [2, 0]\nclass = 0"] ;
542 -> 543 ;
544 [label="gini = 0.221\nsamples = 79\nvalue = [10, 69]\nclass = 1"] ;
542 -> 544 ;
545 [label="x[194] <= 1.5\ngini = 0.436\nsamples = 28\nvalue = [19, 9]\nclass = 0"] ;
521 -> 545 ;
546 [label="x[326] <= 1.5\ngini = 0.444\nsamples = 9\nvalue = [3, 6]\nclass = 1"] ;
545 -> 546 ;
547 [label="gini = 0.0\nsamples = 3\nvalue = [3, 0]\nclass = 0"] ;
546 -> 547 ;
548 [label="gini = 0.0\nsamples = 6\nvalue = [0, 6]\nclass = 1"] ;
546 -> 548 ;
549 [label="x[242] <= 1.5\ngini = 0.266\nsamples = 19\nvalue = [16, 3]\nclass = 0"] ;
545 -> 549 ;
550 [label="x[163] <= 1.5\ngini = 0.48\nsamples = 5\nvalue = [2, 3]\nclass = 1"] ;
549 -> 550 ;
551 [label="gini = 0.0\nsamples = 3\nvalue = [0, 3]\nclass = 1"] ;
550 -> 551 ;
552 [label="gini = 0.0\nsamples = 2\nvalue = [2, 0]\nclass = 0"] ;
550 -> 552 ;
553 [label="gini = 0.0\nsamples = 14\nvalue = [14, 0]\nclass = 0"] ;
549 -> 553 ;
554 [label="x[372] <= 0.5\ngini = 0.491\nsamples = 988\nvalue = [560, 428]\nclass = 0"] ;
520 -> 554 ;
555 [label="x[465] <= 0.5\ngini = 0.35\nsamples = 128\nvalue = [99, 29]\nclass = 0"] ;
554 -> 555 ;
556 [label="gini = 0.0\nsamples = 5\nvalue = [0, 5]\nclass = 1"] ;
555 -> 556 ;
557 [label="x[482] <= 0.5\ngini = 0.314\nsamples = 123\nvalue = [99, 24]\nclass = 0"] ;
555 -> 557 ;
558 [label="x[380] <= 1.5\ngini = 0.278\nsamples = 6\nvalue = [1, 5]\nclass = 1"] ;
557 -> 558 ;
559 [label="gini = 0.0\nsamples = 5\nvalue = [0, 5]\nclass = 1"] ;
558 -> 559 ;
560 [label="gini = 0.0\nsamples = 1\nvalue = [1, 0]\nclass = 0"] ;
558 -> 560 ;
561 [label="x[414] <= 0.5\ngini = 0.272\nsamples = 117\nvalue = [98, 19]\nclass = 0"] ;
557 -> 561 ;
562 [label="gini = 0.0\nsamples = 2\nvalue = [0, 2]\nclass = 1"] ;
561 -> 562 ;
563 [label="x[419] <= 2.5\ngini = 0.252\nsamples = 115\nvalue = [98, 17]\nclass = 0"] ;
561 -> 563 ;
564 [label="gini = 0.23\nsamples = 113\nvalue = [98, 15]\nclass = 0"] ;
563 -> 564 ;
565 [label="gini = 0.0\nsamples = 2\nvalue = [0, 2]\nclass = 1"] ;
563 -> 565 ;
566 [label="x[223] <= 0.5\ngini = 0.497\nsamples = 860\nvalue = [461, 399]\nclass = 0"] ;
554 -> 566 ;
567 [label="x[450] <= 0.5\ngini = 0.499\nsamples = 442\nvalue = [209, 233]\nclass = 1"] ;
566 -> 567 ;
568 [label="gini = 0.0\nsamples = 9\nvalue = [0, 9]\nclass = 1"] ;
567 -> 568 ;
569 [label="x[392] <= 0.5\ngini = 0.499\nsamples = 433\nvalue = [209, 224]\nclass = 1"] ;
567 -> 569 ;
570 [label="x[457] <= 0.5\ngini = 0.153\nsamples = 12\nvalue = [1, 11]\nclass = 1"] ;
569 -> 570 ;
571 [label="gini = 0.0\nsamples = 1\nvalue = [1, 0]\nclass = 0"] ;
570 -> 571 ;
572 [label="gini = 0.0\nsamples = 11\nvalue = [0, 11]\nclass = 1"] ;
570 -> 572 ;
573 [label="x[387] <= 1.5\ngini = 0.5\nsamples = 421\nvalue = [208, 213]\nclass = 1"] ;
569 -> 573 ;
574 [label="gini = 0.475\nsamples = 103\nvalue = [63, 40]\nclass = 0"] ;
573 -> 574 ;
575 [label="gini = 0.496\nsamples = 318\nvalue = [145, 173]\nclass = 1"] ;
573 -> 575 ;
576 [label="x[419] <= 1.5\ngini = 0.479\nsamples = 418\nvalue = [252, 166]\nclass = 0"] ;
566 -> 576 ;
577 [label="x[487] <= 1.5\ngini = 0.382\nsamples = 109\nvalue = [81, 28]\nclass = 0"] ;
576 -> 577 ;
578 [label="x[192] <= 1.5\ngini = 0.499\nsamples = 31\nvalue = [16, 15]\nclass = 0"] ;
577 -> 578 ;
579 [label="gini = 0.391\nsamples = 15\nvalue = [4, 11]\nclass = 1"] ;
578 -> 579 ;
580 [label="gini = 0.375\nsamples = 16\nvalue = [12, 4]\nclass = 0"] ;
578 -> 580 ;
581 [label="x[341] <= 1.5\ngini = 0.278\nsamples = 78\nvalue = [65, 13]\nclass = 0"] ;
577 -> 581 ;
582 [label="gini = 0.492\nsamples = 16\nvalue = [9, 7]\nclass = 0"] ;
581 -> 582 ;
583 [label="gini = 0.175\nsamples = 62\nvalue = [56, 6]\nclass = 0"] ;
581 -> 583 ;
584 [label="x[292] <= 1.5\ngini = 0.494\nsamples = 309\nvalue = [171, 138]\nclass = 0"] ;
576 -> 584 ;
585 [label="x[305] <= 1.5\ngini = 0.436\nsamples = 106\nvalue = [72, 34]\nclass = 0"] ;
584 -> 585 ;
586 [label="gini = 0.161\nsamples = 34\nvalue = [31, 3]\nclass = 0"] ;
585 -> 586 ;
587 [label="gini = 0.49\nsamples = 72\nvalue = [41, 31]\nclass = 0"] ;
585 -> 587 ;
588 [label="x[250] <= 1.5\ngini = 0.5\nsamples = 203\nvalue = [99, 104]\nclass = 1"] ;
584 -> 588 ;
589 [label="gini = 0.452\nsamples = 55\nvalue = [36, 19]\nclass = 0"] ;
588 -> 589 ;
590 [label="gini = 0.489\nsamples = 148\nvalue = [63, 85]\nclass = 1"] ;
588 -> 590 ;
591 [label="x[1] <= 1.5\ngini = 0.476\nsamples = 3509\nvalue = [2140, 1369]\nclass = 0"] ;
425 -> 591 ;
592 [label="x[496] <= 1.5\ngini = 0.494\nsamples = 1577\nvalue = [877, 700]\nclass = 0"] ;
591 -> 592 ;
593 [label="x[2] <= 1.5\ngini = 0.499\nsamples = 640\nvalue = [304, 336]\nclass = 1"] ;
592 -> 593 ;
594 [label="x[77] <= 1.5\ngini = 0.49\nsamples = 492\nvalue = [212, 280]\nclass = 1"] ;
593 -> 594 ;
595 [label="x[335] <= 1.5\ngini = 0.5\nsamples = 257\nvalue = [131, 126]\nclass = 0"] ;
594 -> 595 ;
596 [label="x[433] <= 1.5\ngini = 0.448\nsamples = 71\nvalue = [47, 24]\nclass = 0"] ;
595 -> 596 ;
597 [label="x[226] <= 1.5\ngini = 0.219\nsamples = 24\nvalue = [21, 3]\nclass = 0"] ;
596 -> 597 ;
598 [label="gini = 0.5\nsamples = 6\nvalue = [3, 3]\nclass = 0"] ;
597 -> 598 ;
599 [label="gini = 0.0\nsamples = 18\nvalue = [18, 0]\nclass = 0"] ;
597 -> 599 ;
600 [label="x[305] <= 1.5\ngini = 0.494\nsamples = 47\nvalue = [26, 21]\nclass = 0"] ;
596 -> 600 ;
601 [label="gini = 0.18\nsamples = 10\nvalue = [1, 9]\nclass = 1"] ;
600 -> 601 ;
602 [label="gini = 0.438\nsamples = 37\nvalue = [25, 12]\nclass = 0"] ;
600 -> 602 ;
603 [label="x[432] <= 1.5\ngini = 0.495\nsamples = 186\nvalue = [84, 102]\nclass = 1"] ;
595 -> 603 ;
604 [label="x[151] <= 1.5\ngini = 0.393\nsamples = 52\nvalue = [14, 38]\nclass = 1"] ;
603 -> 604 ;
605 [label="gini = 0.444\nsamples = 9\nvalue = [6, 3]\nclass = 0"] ;
604 -> 605 ;
606 [label="gini = 0.303\nsamples = 43\nvalue = [8, 35]\nclass = 1"] ;
604 -> 606 ;
607 [label="x[134] <= 1.5\ngini = 0.499\nsamples = 134\nvalue = [70, 64]\nclass = 0"] ;
603 -> 607 ;
608 [label="gini = 0.337\nsamples = 28\nvalue = [22, 6]\nclass = 0"] ;
607 -> 608 ;
609 [label="gini = 0.496\nsamples = 106\nvalue = [48, 58]\nclass = 1"] ;
607 -> 609 ;
610 [label="x[106] <= 0.5\ngini = 0.452\nsamples = 235\nvalue = [81, 154]\nclass = 1"] ;
594 -> 610 ;
611 [label="gini = 0.0\nsamples = 4\nvalue = [4, 0]\nclass = 0"] ;
610 -> 611 ;
612 [label="x[449] <= 1.5\ngini = 0.444\nsamples = 231\nvalue = [77, 154]\nclass = 1"] ;
610 -> 612 ;
613 [label="x[171] <= 1.5\ngini = 0.5\nsamples = 55\nvalue = [27, 28]\nclass = 1"] ;
612 -> 613 ;
614 [label="gini = 0.291\nsamples = 17\nvalue = [14, 3]\nclass = 0"] ;
613 -> 614 ;
615 [label="gini = 0.45\nsamples = 38\nvalue = [13, 25]\nclass = 1"] ;
613 -> 615 ;
616 [label="x[115] <= 1.5\ngini = 0.407\nsamples = 176\nvalue = [50, 126]\nclass = 1"] ;
612 -> 616 ;
617 [label="gini = 0.498\nsamples = 43\nvalue = [20, 23]\nclass = 1"] ;
616 -> 617 ;
618 [label="gini = 0.349\nsamples = 133\nvalue = [30, 103]\nclass = 1"] ;
616 -> 618 ;
619 [label="x[113] <= 1.5\ngini = 0.47\nsamples = 148\nvalue = [92, 56]\nclass = 0"] ;
593 -> 619 ;
620 [label="x[56] <= 1.5\ngini = 0.491\nsamples = 46\nvalue = [20, 26]\nclass = 1"] ;
619 -> 620 ;
621 [label="x[179] <= 0.5\ngini = 0.236\nsamples = 22\nvalue = [3, 19]\nclass = 1"] ;
620 -> 621 ;
622 [label="gini = 0.0\nsamples = 2\nvalue = [2, 0]\nclass = 0"] ;
621 -> 622 ;
623 [label="x[421] <= 0.5\ngini = 0.095\nsamples = 20\nvalue = [1, 19]\nclass = 1"] ;
621 -> 623 ;
624 [label="gini = 0.0\nsamples = 1\nvalue = [1, 0]\nclass = 0"] ;
623 -> 624 ;
625 [label="gini = 0.0\nsamples = 19\nvalue = [0, 19]\nclass = 1"] ;
623 -> 625 ;
626 [label="x[447] <= 1.5\ngini = 0.413\nsamples = 24\nvalue = [17, 7]\nclass = 0"] ;
620 -> 626 ;
627 [label="x[14] <= 1.5\ngini = 0.444\nsamples = 9\nvalue = [3, 6]\nclass = 1"] ;
626 -> 627 ;
628 [label="gini = 0.0\nsamples = 3\nvalue = [3, 0]\nclass = 0"] ;
627 -> 628 ;
629 [label="gini = 0.0\nsamples = 6\nvalue = [0, 6]\nclass = 1"] ;
627 -> 629 ;
630 [label="x[90] <= 0.5\ngini = 0.124\nsamples = 15\nvalue = [14, 1]\nclass = 0"] ;
626 -> 630 ;
631 [label="gini = 0.0\nsamples = 1\nvalue = [0, 1]\nclass = 1"] ;
630 -> 631 ;
632 [label="gini = 0.0\nsamples = 14\nvalue = [14, 0]\nclass = 0"] ;
630 -> 632 ;
633 [label="x[30] <= 1.5\ngini = 0.415\nsamples = 102\nvalue = [72, 30]\nclass = 0"] ;
619 -> 633 ;
634 [label="x[277] <= 0.5\ngini = 0.231\nsamples = 45\nvalue = [39, 6]\nclass = 0"] ;
633 -> 634 ;
635 [label="gini = 0.0\nsamples = 2\nvalue = [0, 2]\nclass = 1"] ;
634 -> 635 ;
636 [label="x[240] <= 0.5\ngini = 0.169\nsamples = 43\nvalue = [39, 4]\nclass = 0"] ;
634 -> 636 ;
637 [label="gini = 0.0\nsamples = 2\nvalue = [0, 2]\nclass = 1"] ;
636 -> 637 ;
638 [label="gini = 0.093\nsamples = 41\nvalue = [39, 2]\nclass = 0"] ;
636 -> 638 ;
639 [label="x[453] <= 1.5\ngini = 0.488\nsamples = 57\nvalue = [33, 24]\nclass = 0"] ;
633 -> 639 ;
640 [label="x[231] <= 0.5\ngini = 0.208\nsamples = 17\nvalue = [15, 2]\nclass = 0"] ;
639 -> 640 ;
641 [label="gini = 0.0\nsamples = 1\nvalue = [0, 1]\nclass = 1"] ;
640 -> 641 ;
642 [label="gini = 0.117\nsamples = 16\nvalue = [15, 1]\nclass = 0"] ;
640 -> 642 ;
643 [label="x[417] <= 1.5\ngini = 0.495\nsamples = 40\nvalue = [18, 22]\nclass = 1"] ;
639 -> 643 ;
644 [label="gini = 0.375\nsamples = 16\nvalue = [12, 4]\nclass = 0"] ;
643 -> 644 ;
645 [label="gini = 0.375\nsamples = 24\nvalue = [6, 18]\nclass = 1"] ;
643 -> 645 ;
646 [label="x[33] <= 1.5\ngini = 0.475\nsamples = 937\nvalue = [573, 364]\nclass = 0"] ;
592 -> 646 ;
647 [label="x[143] <= 0.5\ngini = 0.446\nsamples = 578\nvalue = [384, 194]\nclass = 0"] ;
646 -> 647 ;
648 [label="gini = 0.0\nsamples = 6\nvalue = [0, 6]\nclass = 1"] ;
647 -> 648 ;
649 [label="x[499] <= 1.5\ngini = 0.441\nsamples = 572\nvalue = [384, 188]\nclass = 0"] ;
647 -> 649 ;
650 [label="x[259] <= 1.5\ngini = 0.496\nsamples = 127\nvalue = [69, 58]\nclass = 0"] ;
649 -> 650 ;
651 [label="x[330] <= 1.5\ngini = 0.346\nsamples = 36\nvalue = [28, 8]\nclass = 0"] ;
650 -> 651 ;
652 [label="gini = 0.494\nsamples = 9\nvalue = [4, 5]\nclass = 1"] ;
651 -> 652 ;
653 [label="gini = 0.198\nsamples = 27\nvalue = [24, 3]\nclass = 0"] ;
651 -> 653 ;
654 [label="x[326] <= 1.5\ngini = 0.495\nsamples = 91\nvalue = [41, 50]\nclass = 1"] ;
650 -> 654 ;
655 [label="gini = 0.408\nsamples = 21\nvalue = [15, 6]\nclass = 0"] ;
654 -> 655 ;
656 [label="gini = 0.467\nsamples = 70\nvalue = [26, 44]\nclass = 1"] ;
654 -> 656 ;
657 [label="x[227] <= 1.5\ngini = 0.414\nsamples = 445\nvalue = [315, 130]\nclass = 0"] ;
649 -> 657 ;
658 [label="x[363] <= 1.5\ngini = 0.262\nsamples = 116\nvalue = [98, 18]\nclass = 0"] ;
657 -> 658 ;
659 [label="gini = 0.466\nsamples = 27\nvalue = [17, 10]\nclass = 0"] ;
658 -> 659 ;
660 [label="gini = 0.164\nsamples = 89\nvalue = [81, 8]\nclass = 0"] ;
658 -> 660 ;
661 [label="x[232] <= 0.5\ngini = 0.449\nsamples = 329\nvalue = [217, 112]\nclass = 0"] ;
657 -> 661 ;
662 [label="gini = 0.18\nsamples = 10\nvalue = [1, 9]\nclass = 1"] ;
661 -> 662 ;
663 [label="gini = 0.437\nsamples = 319\nvalue = [216, 103]\nclass = 0"] ;
661 -> 663 ;
664 [label="x[382] <= 1.5\ngini = 0.499\nsamples = 359\nvalue = [189, 170]\nclass = 0"] ;
646 -> 664 ;
665 [label="x[481] <= 0.5\ngini = 0.442\nsamples = 100\nvalue = [67, 33]\nclass = 0"] ;
664 -> 665 ;
666 [label="x[67] <= 1.5\ngini = 0.245\nsamples = 7\nvalue = [1, 6]\nclass = 1"] ;
665 -> 666 ;
667 [label="gini = 0.0\nsamples = 1\nvalue = [1, 0]\nclass = 0"] ;
666 -> 667 ;
668 [label="gini = 0.0\nsamples = 6\nvalue = [0, 6]\nclass = 1"] ;
666 -> 668 ;
669 [label="x[178] <= 1.5\ngini = 0.412\nsamples = 93\nvalue = [66, 27]\nclass = 0"] ;
665 -> 669 ;
670 [label="x[330] <= 2.5\ngini = 0.142\nsamples = 26\nvalue = [24, 2]\nclass = 0"] ;
669 -> 670 ;
671 [label="gini = 0.077\nsamples = 25\nvalue = [24, 1]\nclass = 0"] ;
670 -> 671 ;
672 [label="gini = 0.0\nsamples = 1\nvalue = [0, 1]\nclass = 1"] ;
670 -> 672 ;
673 [label="x[2] <= 1.5\ngini = 0.468\nsamples = 67\nvalue = [42, 25]\nclass = 0"] ;
669 -> 673 ;
674 [label="gini = 0.493\nsamples = 34\nvalue = [15, 19]\nclass = 1"] ;
673 -> 674 ;
675 [label="gini = 0.298\nsamples = 33\nvalue = [27, 6]\nclass = 0"] ;
673 -> 675 ;
676 [label="x[379] <= 1.5\ngini = 0.498\nsamples = 259\nvalue = [122, 137]\nclass = 1"] ;
664 -> 676 ;
677 [label="x[431] <= 1.5\ngini = 0.471\nsamples = 71\nvalue = [44, 27]\nclass = 0"] ;
676 -> 677 ;
678 [label="x[144] <= 1.5\ngini = 0.236\nsamples = 22\nvalue = [19, 3]\nclass = 0"] ;
677 -> 678 ;
679 [label="gini = 0.48\nsamples = 5\nvalue = [2, 3]\nclass = 1"] ;
678 -> 679 ;
680 [label="gini = 0.0\nsamples = 17\nvalue = [17, 0]\nclass = 0"] ;
678 -> 680 ;
681 [label="x[239] <= 1.5\ngini = 0.5\nsamples = 49\nvalue = [25, 24]\nclass = 0"] ;
677 -> 681 ;
682 [label="gini = 0.278\nsamples = 12\nvalue = [10, 2]\nclass = 0"] ;
681 -> 682 ;
683 [label="gini = 0.482\nsamples = 37\nvalue = [15, 22]\nclass = 1"] ;
681 -> 683 ;
684 [label="x[346] <= 1.5\ngini = 0.486\nsamples = 188\nvalue = [78, 110]\nclass = 1"] ;
676 -> 684 ;
685 [label="x[68] <= 1.5\ngini = 0.488\nsamples = 52\nvalue = [30, 22]\nclass = 0"] ;
684 -> 685 ;
686 [label="gini = 0.298\nsamples = 11\nvalue = [2, 9]\nclass = 1"] ;
685 -> 686 ;
687 [label="gini = 0.433\nsamples = 41\nvalue = [28, 13]\nclass = 0"] ;
685 -> 687 ;
688 [label="x[168] <= 1.5\ngini = 0.457\nsamples = 136\nvalue = [48, 88]\nclass = 1"] ;
684 -> 688 ;
689 [label="gini = 0.494\nsamples = 36\nvalue = [20, 16]\nclass = 0"] ;
688 -> 689 ;
690 [label="gini = 0.403\nsamples = 100\nvalue = [28, 72]\nclass = 1"] ;
688 -> 690 ;
691 [label="x[496] <= 2.5\ngini = 0.453\nsamples = 1932\nvalue = [1263, 669]\nclass = 0"] ;
591 -> 691 ;
692 [label="x[402] <= 2.5\ngini = 0.45\nsamples = 1914\nvalue = [1260, 654]\nclass = 0"] ;
691 -> 692 ;
693 [label="x[279] <= 2.5\ngini = 0.448\nsamples = 1903\nvalue = [1259, 644]\nclass = 0"] ;
692 -> 693 ;
694 [label="x[314] <= 1.5\ngini = 0.446\nsamples = 1894\nvalue = [1258, 636]\nclass = 0"] ;
693 -> 694 ;
695 [label="x[323] <= 1.5\ngini = 0.479\nsamples = 518\nvalue = [312, 206]\nclass = 0"] ;
694 -> 695 ;
696 [label="x[430] <= 0.5\ngini = 0.5\nsamples = 162\nvalue = [79, 83]\nclass = 1"] ;
695 -> 696 ;
697 [label="gini = 0.0\nsamples = 7\nvalue = [0, 7]\nclass = 1"] ;
696 -> 697 ;
698 [label="gini = 0.5\nsamples = 155\nvalue = [79, 76]\nclass = 0"] ;
696 -> 698 ;
699 [label="x[202] <= 1.5\ngini = 0.452\nsamples = 356\nvalue = [233, 123]\nclass = 0"] ;
695 -> 699 ;
700 [label="gini = 0.293\nsamples = 101\nvalue = [83, 18]\nclass = 0"] ;
699 -> 700 ;
701 [label="gini = 0.484\nsamples = 255\nvalue = [150, 105]\nclass = 0"] ;
699 -> 701 ;
702 [label="x[101] <= 2.5\ngini = 0.43\nsamples = 1376\nvalue = [946, 430]\nclass = 0"] ;
694 -> 702 ;
703 [label="x[488] <= 1.5\ngini = 0.427\nsamples = 1368\nvalue = [945, 423]\nclass = 0"] ;
702 -> 703 ;
704 [label="gini = 0.37\nsamples = 368\nvalue = [278, 90]\nclass = 0"] ;
703 -> 704 ;
705 [label="gini = 0.444\nsamples = 1000\nvalue = [667, 333]\nclass = 0"] ;
703 -> 705 ;
706 [label="x[426] <= 0.5\ngini = 0.219\nsamples = 8\nvalue = [1, 7]\nclass = 1"] ;
702 -> 706 ;
707 [label="gini = 0.0\nsamples = 1\nvalue = [1, 0]\nclass = 0"] ;
706 -> 707 ;
708 [label="gini = 0.0\nsamples = 7\nvalue = [0, 7]\nclass = 1"] ;
706 -> 708 ;
709 [label="x[223] <= 1.5\ngini = 0.198\nsamples = 9\nvalue = [1, 8]\nclass = 1"] ;
693 -> 709 ;
710 [label="gini = 0.0\nsamples = 1\nvalue = [1, 0]\nclass = 0"] ;
709 -> 710 ;
711 [label="gini = 0.0\nsamples = 8\nvalue = [0, 8]\nclass = 1"] ;
709 -> 711 ;
712 [label="x[190] <= 0.5\ngini = 0.165\nsamples = 11\nvalue = [1, 10]\nclass = 1"] ;
692 -> 712 ;
713 [label="gini = 0.0\nsamples = 1\nvalue = [1, 0]\nclass = 0"] ;
712 -> 713 ;
714 [label="gini = 0.0\nsamples = 10\nvalue = [0, 10]\nclass = 1"] ;
712 -> 714 ;
715 [label="x[329] <= 1.5\ngini = 0.278\nsamples = 18\nvalue = [3, 15]\nclass = 1"] ;
691 -> 715 ;
716 [label="x[255] <= 1.5\ngini = 0.375\nsamples = 4\nvalue = [3, 1]\nclass = 0"] ;
715 -> 716 ;
717 [label="gini = 0.0\nsamples = 1\nvalue = [0, 1]\nclass = 1"] ;
716 -> 717 ;
718 [label="gini = 0.0\nsamples = 3\nvalue = [3, 0]\nclass = 0"] ;
716 -> 718 ;
719 [label="gini = 0.0\nsamples = 14\nvalue = [0, 14]\nclass = 1"] ;
715 -> 719 ;
720 [label="x[369] <= 0.5\ngini = 0.465\nsamples = 16106\nvalue = [10189, 5917]\nclass = 0"] ;
424 -> 720 ;
721 [label="x[452] <= 0.5\ngini = 0.383\nsamples = 938\nvalue = [696, 242]\nclass = 0"] ;
720 -> 721 ;
722 [label="x[448] <= 1.5\ngini = 0.36\nsamples = 17\nvalue = [4, 13]\nclass = 1"] ;
721 -> 722 ;
723 [label="gini = 0.0\nsamples = 10\nvalue = [0, 10]\nclass = 1"] ;
722 -> 723 ;
724 [label="x[389] <= 1.5\ngini = 0.49\nsamples = 7\nvalue = [4, 3]\nclass = 0"] ;
722 -> 724 ;
725 [label="gini = 0.0\nsamples = 3\nvalue = [3, 0]\nclass = 0"] ;
724 -> 725 ;
726 [label="x[388] <= 1.5\ngini = 0.375\nsamples = 4\nvalue = [1, 3]\nclass = 1"] ;
724 -> 726 ;
727 [label="gini = 0.0\nsamples = 1\nvalue = [1, 0]\nclass = 0"] ;
726 -> 727 ;
728 [label="gini = 0.0\nsamples = 3\nvalue = [0, 3]\nclass = 1"] ;
726 -> 728 ;
729 [label="x[389] <= 0.5\ngini = 0.374\nsamples = 921\nvalue = [692, 229]\nclass = 0"] ;
721 -> 729 ;
730 [label="x[412] <= 0.5\ngini = 0.292\nsamples = 321\nvalue = [264, 57]\nclass = 0"] ;
729 -> 730 ;
731 [label="x[405] <= 1.5\ngini = 0.278\nsamples = 6\nvalue = [1, 5]\nclass = 1"] ;
730 -> 731 ;
732 [label="gini = 0.0\nsamples = 5\nvalue = [0, 5]\nclass = 1"] ;
731 -> 732 ;
733 [label="gini = 0.0\nsamples = 1\nvalue = [1, 0]\nclass = 0"] ;
731 -> 733 ;
734 [label="x[450] <= 0.5\ngini = 0.276\nsamples = 315\nvalue = [263, 52]\nclass = 0"] ;
730 -> 734 ;
735 [label="gini = 0.0\nsamples = 3\nvalue = [0, 3]\nclass = 1"] ;
734 -> 735 ;
736 [label="x[418] <= 2.5\ngini = 0.265\nsamples = 312\nvalue = [263, 49]\nclass = 0"] ;
734 -> 736 ;
737 [label="x[461] <= 0.5\ngini = 0.257\nsamples = 310\nvalue = [263, 47]\nclass = 0"] ;
736 -> 737 ;
738 [label="x[445] <= 1.5\ngini = 0.375\nsamples = 4\nvalue = [1, 3]\nclass = 1"] ;
737 -> 738 ;
739 [label="gini = 0.0\nsamples = 3\nvalue = [0, 3]\nclass = 1"] ;
738 -> 739 ;
740 [label="gini = 0.0\nsamples = 1\nvalue = [1, 0]\nclass = 0"] ;
738 -> 740 ;
741 [label="x[468] <= 1.5\ngini = 0.246\nsamples = 306\nvalue = [262, 44]\nclass = 0"] ;
737 -> 741 ;
742 [label="gini = 0.372\nsamples = 77\nvalue = [58, 19]\nclass = 0"] ;
741 -> 742 ;
743 [label="gini = 0.195\nsamples = 229\nvalue = [204, 25]\nclass = 0"] ;
741 -> 743 ;
744 [label="gini = 0.0\nsamples = 2\nvalue = [0, 2]\nclass = 1"] ;
736 -> 744 ;
745 [label="x[479] <= 0.5\ngini = 0.409\nsamples = 600\nvalue = [428, 172]\nclass = 0"] ;
729 -> 745 ;
746 [label="x[471] <= 1.5\ngini = 0.32\nsamples = 10\nvalue = [2, 8]\nclass = 1"] ;
745 -> 746 ;
747 [label="x[474] <= 1.5\ngini = 0.444\nsamples = 3\nvalue = [2, 1]\nclass = 0"] ;
746 -> 747 ;
748 [label="gini = 0.0\nsamples = 2\nvalue = [2, 0]\nclass = 0"] ;
747 -> 748 ;
749 [label="gini = 0.0\nsamples = 1\nvalue = [0, 1]\nclass = 1"] ;
747 -> 749 ;
750 [label="gini = 0.0\nsamples = 7\nvalue = [0, 7]\nclass = 1"] ;
746 -> 750 ;
751 [label="x[386] <= 2.5\ngini = 0.401\nsamples = 590\nvalue = [426, 164]\nclass = 0"] ;
745 -> 751 ;
752 [label="x[478] <= 2.5\ngini = 0.397\nsamples = 586\nvalue = [426, 160]\nclass = 0"] ;
751 -> 752 ;
753 [label="x[427] <= 2.5\ngini = 0.392\nsamples = 582\nvalue = [426, 156]\nclass = 0"] ;
752 -> 753 ;
754 [label="x[224] <= 1.5\ngini = 0.387\nsamples = 576\nvalue = [425, 151]\nclass = 0"] ;
753 -> 754 ;
755 [label="gini = 0.361\nsamples = 466\nvalue = [356, 110]\nclass = 0"] ;
754 -> 755 ;
756 [label="gini = 0.468\nsamples = 110\nvalue = [69, 41]\nclass = 0"] ;
754 -> 756 ;
757 [label="x[134] <= 1.0\ngini = 0.278\nsamples = 6\nvalue = [1, 5]\nclass = 1"] ;
753 -> 757 ;
758 [label="gini = 0.0\nsamples = 5\nvalue = [0, 5]\nclass = 1"] ;
757 -> 758 ;
759 [label="gini = 0.0\nsamples = 1\nvalue = [1, 0]\nclass = 0"] ;
757 -> 759 ;
760 [label="gini = 0.0\nsamples = 4\nvalue = [0, 4]\nclass = 1"] ;
752 -> 760 ;
761 [label="gini = 0.0\nsamples = 4\nvalue = [0, 4]\nclass = 1"] ;
751 -> 761 ;
762 [label="x[199] <= 0.5\ngini = 0.468\nsamples = 15168\nvalue = [9493, 5675]\nclass = 0"] ;
720 -> 762 ;
763 [label="x[496] <= 1.5\ngini = 0.491\nsamples = 3272\nvalue = [1859, 1413]\nclass = 0"] ;
762 -> 763 ;
764 [label="x[499] <= 1.5\ngini = 0.465\nsamples = 1061\nvalue = [671, 390]\nclass = 0"] ;
763 -> 764 ;
765 [label="x[494] <= 1.5\ngini = 0.292\nsamples = 429\nvalue = [353, 76]\nclass = 0"] ;
764 -> 765 ;
766 [label="x[482] <= 1.5\ngini = 0.498\nsamples = 51\nvalue = [24, 27]\nclass = 1"] ;
765 -> 766 ;
767 [label="x[419] <= 1.5\ngini = 0.305\nsamples = 16\nvalue = [13, 3]\nclass = 0"] ;
766 -> 767 ;
768 [label="x[407] <= 1.5\ngini = 0.375\nsamples = 4\nvalue = [1, 3]\nclass = 1"] ;
767 -> 768 ;
769 [label="gini = 0.0\nsamples = 1\nvalue = [1, 0]\nclass = 0"] ;
768 -> 769 ;
770 [label="gini = 0.0\nsamples = 3\nvalue = [0, 3]\nclass = 1"] ;
768 -> 770 ;
771 [label="gini = 0.0\nsamples = 12\nvalue = [12, 0]\nclass = 0"] ;
767 -> 771 ;
772 [label="x[341] <= 0.5\ngini = 0.431\nsamples = 35\nvalue = [11, 24]\nclass = 1"] ;
766 -> 772 ;
773 [label="gini = 0.0\nsamples = 4\nvalue = [4, 0]\nclass = 0"] ;
772 -> 773 ;
774 [label="x[488] <= 1.5\ngini = 0.35\nsamples = 31\nvalue = [7, 24]\nclass = 1"] ;
772 -> 774 ;
775 [label="gini = 0.469\nsamples = 8\nvalue = [5, 3]\nclass = 0"] ;
774 -> 775 ;
776 [label="gini = 0.159\nsamples = 23\nvalue = [2, 21]\nclass = 1"] ;
774 -> 776 ;
777 [label="x[54] <= 1.5\ngini = 0.226\nsamples = 378\nvalue = [329, 49]\nclass = 0"] ;
765 -> 777 ;
778 [label="x[465] <= 0.5\ngini = 0.208\nsamples = 373\nvalue = [329, 44]\nclass = 0"] ;
777 -> 778 ;
779 [label="x[242] <= 1.0\ngini = 0.32\nsamples = 5\nvalue = [1, 4]\nclass = 1"] ;
778 -> 779 ;
780 [label="gini = 0.0\nsamples = 4\nvalue = [0, 4]\nclass = 1"] ;
779 -> 780 ;
781 [label="gini = 0.0\nsamples = 1\nvalue = [1, 0]\nclass = 0"] ;
779 -> 781 ;
782 [label="x[487] <= 0.5\ngini = 0.194\nsamples = 368\nvalue = [328, 40]\nclass = 0"] ;
778 -> 782 ;
783 [label="gini = 0.5\nsamples = 8\nvalue = [4, 4]\nclass = 0"] ;
782 -> 783 ;
784 [label="gini = 0.18\nsamples = 360\nvalue = [324, 36]\nclass = 0"] ;
782 -> 784 ;
785 [label="gini = 0.0\nsamples = 5\nvalue = [0, 5]\nclass = 1"] ;
777 -> 785 ;
786 [label="x[495] <= 1.5\ngini = 0.5\nsamples = 632\nvalue = [318, 314]\nclass = 0"] ;
764 -> 786 ;
787 [label="x[310] <= 0.5\ngini = 0.463\nsamples = 250\nvalue = [91, 159]\nclass = 1"] ;
786 -> 787 ;
788 [label="x[452] <= 1.5\ngini = 0.463\nsamples = 55\nvalue = [35, 20]\nclass = 0"] ;
787 -> 788 ;
789 [label="x[398] <= 2.5\ngini = 0.133\nsamples = 14\nvalue = [13, 1]\nclass = 0"] ;
788 -> 789 ;
790 [label="gini = 0.0\nsamples = 13\nvalue = [13, 0]\nclass = 0"] ;
789 -> 790 ;
791 [label="gini = 0.0\nsamples = 1\nvalue = [0, 1]\nclass = 1"] ;
789 -> 791 ;
792 [label="x[438] <= 1.5\ngini = 0.497\nsamples = 41\nvalue = [22, 19]\nclass = 0"] ;
788 -> 792 ;
793 [label="gini = 0.337\nsamples = 14\nvalue = [11, 3]\nclass = 0"] ;
792 -> 793 ;
794 [label="gini = 0.483\nsamples = 27\nvalue = [11, 16]\nclass = 1"] ;
792 -> 794 ;
795 [label="x[369] <= 1.5\ngini = 0.409\nsamples = 195\nvalue = [56, 139]\nclass = 1"] ;
787 -> 795 ;
796 [label="x[449] <= 1.5\ngini = 0.496\nsamples = 57\nvalue = [26, 31]\nclass = 1"] ;
795 -> 796 ;
797 [label="gini = 0.278\nsamples = 12\nvalue = [10, 2]\nclass = 0"] ;
796 -> 797 ;
798 [label="gini = 0.458\nsamples = 45\nvalue = [16, 29]\nclass = 1"] ;
796 -> 798 ;
799 [label="x[158] <= 1.5\ngini = 0.34\nsamples = 138\nvalue = [30, 108]\nclass = 1"] ;
795 -> 799 ;
800 [label="gini = 0.313\nsamples = 134\nvalue = [26, 108]\nclass = 1"] ;
799 -> 800 ;
801 [label="gini = 0.0\nsamples = 4\nvalue = [4, 0]\nclass = 0"] ;
799 -> 801 ;
802 [label="x[421] <= 1.5\ngini = 0.482\nsamples = 382\nvalue = [227, 155]\nclass = 0"] ;
786 -> 802 ;
803 [label="x[311] <= 1.5\ngini = 0.494\nsamples = 128\nvalue = [57, 71]\nclass = 1"] ;
802 -> 803 ;
804 [label="x[385] <= 1.5\ngini = 0.43\nsamples = 48\nvalue = [33, 15]\nclass = 0"] ;
803 -> 804 ;
805 [label="gini = 0.48\nsamples = 15\nvalue = [6, 9]\nclass = 1"] ;
804 -> 805 ;
806 [label="gini = 0.298\nsamples = 33\nvalue = [27, 6]\nclass = 0"] ;
804 -> 806 ;
807 [label="x[469] <= 1.5\ngini = 0.42\nsamples = 80\nvalue = [24, 56]\nclass = 1"] ;
803 -> 807 ;
808 [label="gini = 0.102\nsamples = 37\nvalue = [2, 35]\nclass = 1"] ;
807 -> 808 ;
809 [label="gini = 0.5\nsamples = 43\nvalue = [22, 21]\nclass = 0"] ;
807 -> 809 ;
810 [label="x[491] <= 0.5\ngini = 0.443\nsamples = 254\nvalue = [170, 84]\nclass = 0"] ;
802 -> 810 ;
811 [label="gini = 0.0\nsamples = 4\nvalue = [0, 4]\nclass = 1"] ;
810 -> 811 ;
812 [label="x[400] <= 0.5\ngini = 0.435\nsamples = 250\nvalue = [170, 80]\nclass = 0"] ;
810 -> 812 ;
813 [label="gini = 0.278\nsamples = 6\nvalue = [1, 5]\nclass = 1"] ;
812 -> 813 ;
814 [label="gini = 0.426\nsamples = 244\nvalue = [169, 75]\nclass = 0"] ;
812 -> 814 ;
815 [label="x[499] <= 1.5\ngini = 0.497\nsamples = 2211\nvalue = [1188, 1023]\nclass = 0"] ;
763 -> 815 ;
816 [label="x[36] <= 1.5\ngini = 0.464\nsamples = 358\nvalue = [131, 227]\nclass = 1"] ;
815 -> 816 ;
817 [label="x[455] <= 1.5\ngini = 0.451\nsamples = 341\nvalue = [117, 224]\nclass = 1"] ;
816 -> 817 ;
818 [label="x[395] <= 1.5\ngini = 0.499\nsamples = 77\nvalue = [37, 40]\nclass = 1"] ;
817 -> 818 ;
819 [label="x[362] <= 1.5\ngini = 0.32\nsamples = 15\nvalue = [12, 3]\nclass = 0"] ;
818 -> 819 ;
820 [label="gini = 0.375\nsamples = 4\nvalue = [1, 3]\nclass = 1"] ;
819 -> 820 ;
821 [label="gini = 0.0\nsamples = 11\nvalue = [11, 0]\nclass = 0"] ;
819 -> 821 ;
822 [label="x[386] <= 1.5\ngini = 0.481\nsamples = 62\nvalue = [25, 37]\nclass = 1"] ;
818 -> 822 ;
823 [label="gini = 0.463\nsamples = 22\nvalue = [14, 8]\nclass = 0"] ;
822 -> 823 ;
824 [label="gini = 0.399\nsamples = 40\nvalue = [11, 29]\nclass = 1"] ;
822 -> 824 ;
825 [label="x[261] <= 1.5\ngini = 0.422\nsamples = 264\nvalue = [80, 184]\nclass = 1"] ;
817 -> 825 ;
826 [label="x[489] <= 1.5\ngini = 0.379\nsamples = 185\nvalue = [47, 138]\nclass = 1"] ;
825 -> 826 ;
827 [label="gini = 0.477\nsamples = 56\nvalue = [22, 34]\nclass = 1"] ;
826 -> 827 ;
828 [label="gini = 0.312\nsamples = 129\nvalue = [25, 104]\nclass = 1"] ;
826 -> 828 ;
829 [label="x[275] <= 1.5\ngini = 0.486\nsamples = 79\nvalue = [33, 46]\nclass = 1"] ;
825 -> 829 ;
830 [label="gini = 0.337\nsamples = 14\nvalue = [11, 3]\nclass = 0"] ;
829 -> 830 ;
831 [label="gini = 0.448\nsamples = 65\nvalue = [22, 43]\nclass = 1"] ;
829 -> 831 ;
832 [label="x[442] <= 1.5\ngini = 0.291\nsamples = 17\nvalue = [14, 3]\nclass = 0"] ;
816 -> 832 ;
833 [label="gini = 0.0\nsamples = 2\nvalue = [0, 2]\nclass = 1"] ;
832 -> 833 ;
834 [label="x[10] <= 0.5\ngini = 0.124\nsamples = 15\nvalue = [14, 1]\nclass = 0"] ;
832 -> 834 ;
835 [label="gini = 0.0\nsamples = 1\nvalue = [0, 1]\nclass = 1"] ;
834 -> 835 ;
836 [label="gini = 0.0\nsamples = 14\nvalue = [14, 0]\nclass = 0"] ;
834 -> 836 ;
837 [label="x[481] <= 1.5\ngini = 0.49\nsamples = 1853\nvalue = [1057, 796]\nclass = 0"] ;
815 -> 837 ;
838 [label="x[483] <= 0.5\ngini = 0.5\nsamples = 471\nvalue = [233, 238]\nclass = 1"] ;
837 -> 838 ;
839 [label="gini = 0.0\nsamples = 11\nvalue = [0, 11]\nclass = 1"] ;
838 -> 839 ;
840 [label="x[413] <= 0.5\ngini = 0.5\nsamples = 460\nvalue = [233, 227]\nclass = 0"] ;
838 -> 840 ;
841 [label="gini = 0.0\nsamples = 11\nvalue = [0, 11]\nclass = 1"] ;
840 -> 841 ;
842 [label="x[352] <= 1.5\ngini = 0.499\nsamples = 449\nvalue = [233, 216]\nclass = 0"] ;
840 -> 842 ;
843 [label="gini = 0.489\nsamples = 155\nvalue = [66, 89]\nclass = 1"] ;
842 -> 843 ;
844 [label="gini = 0.491\nsamples = 294\nvalue = [167, 127]\nclass = 0"] ;
842 -> 844 ;
845 [label="x[466] <= 2.5\ngini = 0.481\nsamples = 1382\nvalue = [824, 558]\nclass = 0"] ;
837 -> 845 ;
846 [label="x[430] <= 0.5\ngini = 0.48\nsamples = 1375\nvalue = [824, 551]\nclass = 0"] ;
845 -> 846 ;
847 [label="x[245] <= 1.5\ngini = 0.32\nsamples = 15\nvalue = [3, 12]\nclass = 1"] ;
846 -> 847 ;
848 [label="gini = 0.142\nsamples = 13\nvalue = [1, 12]\nclass = 1"] ;
847 -> 848 ;
849 [label="gini = 0.0\nsamples = 2\nvalue = [2, 0]\nclass = 0"] ;
847 -> 849 ;
850 [label="x[408] <= 0.5\ngini = 0.479\nsamples = 1360\nvalue = [821, 539]\nclass = 0"] ;
846 -> 850 ;
851 [label="gini = 0.32\nsamples = 15\nvalue = [3, 12]\nclass = 1"] ;
850 -> 851 ;
852 [label="gini = 0.477\nsamples = 1345\nvalue = [818, 527]\nclass = 0"] ;
850 -> 852 ;
853 [label="gini = 0.0\nsamples = 7\nvalue = [0, 7]\nclass = 1"] ;
845 -> 853 ;
854 [label="x[23] <= 1.5\ngini = 0.46\nsamples = 11896\nvalue = [7634, 4262]\nclass = 0"] ;
762 -> 854 ;
855 [label="x[495] <= 1.5\ngini = 0.443\nsamples = 6130\nvalue = [4096, 2034]\nclass = 0"] ;
854 -> 855 ;
856 [label="x[496] <= 1.5\ngini = 0.481\nsamples = 1833\nvalue = [1094, 739]\nclass = 0"] ;
855 -> 856 ;
857 [label="x[499] <= 1.5\ngini = 0.5\nsamples = 780\nvalue = [394, 386]\nclass = 0"] ;
856 -> 857 ;
858 [label="x[5] <= 1.5\ngini = 0.374\nsamples = 221\nvalue = [166, 55]\nclass = 0"] ;
857 -> 858 ;
859 [label="x[256] <= 1.5\ngini = 0.311\nsamples = 187\nvalue = [151, 36]\nclass = 0"] ;
858 -> 859 ;
860 [label="gini = 0.444\nsamples = 51\nvalue = [34, 17]\nclass = 0"] ;
859 -> 860 ;
861 [label="gini = 0.24\nsamples = 136\nvalue = [117, 19]\nclass = 0"] ;
859 -> 861 ;
862 [label="x[163] <= 1.5\ngini = 0.493\nsamples = 34\nvalue = [15, 19]\nclass = 1"] ;
858 -> 862 ;
863 [label="gini = 0.0\nsamples = 9\nvalue = [0, 9]\nclass = 1"] ;
862 -> 863 ;
864 [label="gini = 0.48\nsamples = 25\nvalue = [15, 10]\nclass = 0"] ;
862 -> 864 ;
865 [label="x[9] <= 0.5\ngini = 0.483\nsamples = 559\nvalue = [228, 331]\nclass = 1"] ;
857 -> 865 ;
866 [label="x[494] <= 1.5\ngini = 0.444\nsamples = 447\nvalue = [149, 298]\nclass = 1"] ;
865 -> 866 ;
867 [label="gini = 0.484\nsamples = 90\nvalue = [53, 37]\nclass = 0"] ;
866 -> 867 ;
868 [label="gini = 0.393\nsamples = 357\nvalue = [96, 261]\nclass = 1"] ;
866 -> 868 ;
869 [label="x[267] <= 1.5\ngini = 0.416\nsamples = 112\nvalue = [79, 33]\nclass = 0"] ;
865 -> 869 ;
870 [label="gini = 0.5\nsamples = 33\nvalue = [16, 17]\nclass = 1"] ;
869 -> 870 ;
871 [label="gini = 0.323\nsamples = 79\nvalue = [63, 16]\nclass = 0"] ;
869 -> 871 ;
872 [label="x[499] <= 0.5\ngini = 0.446\nsamples = 1053\nvalue = [700, 353]\nclass = 0"] ;
856 -> 872 ;
873 [label="x[190] <= 1.5\ngini = 0.436\nsamples = 28\nvalue = [9, 19]\nclass = 1"] ;
872 -> 873 ;
874 [label="x[493] <= 0.5\ngini = 0.245\nsamples = 7\nvalue = [6, 1]\nclass = 0"] ;
873 -> 874 ;
875 [label="gini = 0.0\nsamples = 1\nvalue = [0, 1]\nclass = 1"] ;
874 -> 875 ;
876 [label="gini = 0.0\nsamples = 6\nvalue = [6, 0]\nclass = 0"] ;
874 -> 876 ;
877 [label="x[198] <= 1.5\ngini = 0.245\nsamples = 21\nvalue = [3, 18]\nclass = 1"] ;
873 -> 877 ;
878 [label="gini = 0.375\nsamples = 4\nvalue = [3, 1]\nclass = 0"] ;
877 -> 878 ;
879 [label="gini = 0.0\nsamples = 17\nvalue = [0, 17]\nclass = 1"] ;
877 -> 879 ;
880 [label="x[31] <= 1.5\ngini = 0.439\nsamples = 1025\nvalue = [691, 334]\nclass = 0"] ;
872 -> 880 ;
881 [label="x[163] <= 0.5\ngini = 0.414\nsamples = 721\nvalue = [510, 211]\nclass = 0"] ;
880 -> 881 ;
882 [label="gini = 0.493\nsamples = 125\nvalue = [70, 55]\nclass = 0"] ;
881 -> 882 ;
883 [label="gini = 0.386\nsamples = 596\nvalue = [440, 156]\nclass = 0"] ;
881 -> 883 ;
884 [label="x[227] <= 1.5\ngini = 0.482\nsamples = 304\nvalue = [181, 123]\nclass = 0"] ;
880 -> 884 ;
885 [label="gini = 0.386\nsamples = 88\nvalue = [65, 23]\nclass = 0"] ;
884 -> 885 ;
886 [label="gini = 0.497\nsamples = 216\nvalue = [116, 100]\nclass = 0"] ;
884 -> 886 ;
887 [label="x[44] <= 0.5\ngini = 0.421\nsamples = 4297\nvalue = [3002, 1295]\nclass = 0"] ;
855 -> 887 ;
888 [label="x[125] <= 0.5\ngini = 0.393\nsamples = 2466\nvalue = [1803, 663]\nclass = 0"] ;
887 -> 888 ;
889 [label="x[419] <= 1.5\ngini = 0.446\nsamples = 1178\nvalue = [782, 396]\nclass = 0"] ;
888 -> 889 ;
890 [label="x[357] <= 1.5\ngini = 0.492\nsamples = 332\nvalue = [187, 145]\nclass = 0"] ;
889 -> 890 ;
891 [label="gini = 0.471\nsamples = 95\nvalue = [36, 59]\nclass = 1"] ;
890 -> 891 ;
892 [label="gini = 0.462\nsamples = 237\nvalue = [151, 86]\nclass = 0"] ;
890 -> 892 ;
893 [label="x[189] <= 1.5\ngini = 0.417\nsamples = 846\nvalue = [595, 251]\nclass = 0"] ;
889 -> 893 ;
894 [label="gini = 0.462\nsamples = 303\nvalue = [193, 110]\nclass = 0"] ;
893 -> 894 ;
895 [label="gini = 0.384\nsamples = 543\nvalue = [402, 141]\nclass = 0"] ;
893 -> 895 ;
896 [label="x[499] <= 1.5\ngini = 0.329\nsamples = 1288\nvalue = [1021, 267]\nclass = 0"] ;
888 -> 896 ;
897 [label="x[481] <= 1.5\ngini = 0.431\nsamples = 210\nvalue = [144, 66]\nclass = 0"] ;
896 -> 897 ;
898 [label="gini = 0.229\nsamples = 53\nvalue = [46, 7]\nclass = 0"] ;
897 -> 898 ;
899 [label="gini = 0.469\nsamples = 157\nvalue = [98, 59]\nclass = 0"] ;
897 -> 899 ;
900 [label="x[147] <= 0.5\ngini = 0.303\nsamples = 1078\nvalue = [877, 201]\nclass = 0"] ;
896 -> 900 ;
901 [label="gini = 0.42\nsamples = 10\nvalue = [3, 7]\nclass = 1"] ;
900 -> 901 ;
902 [label="gini = 0.297\nsamples = 1068\nvalue = [874, 194]\nclass = 0"] ;
900 -> 902 ;
903 [label="x[125] <= 0.5\ngini = 0.452\nsamples = 1831\nvalue = [1199, 632]\nclass = 0"] ;
887 -> 903 ;
904 [label="x[105] <= 1.5\ngini = 0.403\nsamples = 25\nvalue = [7, 18]\nclass = 1"] ;
903 -> 904 ;
905 [label="gini = 0.0\nsamples = 4\nvalue = [4, 0]\nclass = 0"] ;
904 -> 905 ;
906 [label="x[201] <= 1.5\ngini = 0.245\nsamples = 21\nvalue = [3, 18]\nclass = 1"] ;
904 -> 906 ;
907 [label="gini = 0.5\nsamples = 6\nvalue = [3, 3]\nclass = 0"] ;
906 -> 907 ;
908 [label="gini = 0.0\nsamples = 15\nvalue = [0, 15]\nclass = 1"] ;
906 -> 908 ;
909 [label="x[401] <= 2.5\ngini = 0.449\nsamples = 1806\nvalue = [1192, 614]\nclass = 0"] ;
903 -> 909 ;
910 [label="x[148] <= 2.5\ngini = 0.447\nsamples = 1800\nvalue = [1192, 608]\nclass = 0"] ;
909 -> 910 ;
911 [label="gini = 0.445\nsamples = 1789\nvalue = [1190, 599]\nclass = 0"] ;
910 -> 911 ;
912 [label="gini = 0.298\nsamples = 11\nvalue = [2, 9]\nclass = 1"] ;
910 -> 912 ;
913 [label="gini = 0.0\nsamples = 6\nvalue = [0, 6]\nclass = 1"] ;
909 -> 913 ;
914 [label="x[1] <= 1.5\ngini = 0.474\nsamples = 5766\nvalue = [3538, 2228]\nclass = 0"] ;
854 -> 914 ;
915 [label="x[6] <= 1.5\ngini = 0.498\nsamples = 1465\nvalue = [775, 690]\nclass = 0"] ;
914 -> 915 ;
916 [label="x[70] <= 1.5\ngini = 0.482\nsamples = 579\nvalue = [345, 234]\nclass = 0"] ;
915 -> 916 ;
917 [label="x[88] <= 1.5\ngini = 0.5\nsamples = 172\nvalue = [85, 87]\nclass = 1"] ;
916 -> 917 ;
918 [label="x[297] <= 1.5\ngini = 0.455\nsamples = 60\nvalue = [21, 39]\nclass = 1"] ;
917 -> 918 ;
919 [label="gini = 0.444\nsamples = 18\nvalue = [12, 6]\nclass = 0"] ;
918 -> 919 ;
920 [label="gini = 0.337\nsamples = 42\nvalue = [9, 33]\nclass = 1"] ;
918 -> 920 ;
921 [label="x[265] <= 1.5\ngini = 0.49\nsamples = 112\nvalue = [64, 48]\nclass = 0"] ;
917 -> 921 ;
922 [label="gini = 0.278\nsamples = 30\nvalue = [25, 5]\nclass = 0"] ;
921 -> 922 ;
923 [label="gini = 0.499\nsamples = 82\nvalue = [39, 43]\nclass = 1"] ;
921 -> 923 ;
924 [label="x[382] <= 1.5\ngini = 0.461\nsamples = 407\nvalue = [260, 147]\nclass = 0"] ;
916 -> 924 ;
925 [label="x[364] <= 1.5\ngini = 0.325\nsamples = 98\nvalue = [78, 20]\nclass = 0"] ;
924 -> 925 ;
926 [label="gini = 0.061\nsamples = 32\nvalue = [31, 1]\nclass = 0"] ;
925 -> 926 ;
927 [label="gini = 0.41\nsamples = 66\nvalue = [47, 19]\nclass = 0"] ;
925 -> 927 ;
928 [label="x[122] <= 1.5\ngini = 0.484\nsamples = 309\nvalue = [182, 127]\nclass = 0"] ;
924 -> 928 ;
929 [label="gini = 0.388\nsamples = 95\nvalue = [70, 25]\nclass = 0"] ;
928 -> 929 ;
930 [label="gini = 0.499\nsamples = 214\nvalue = [112, 102]\nclass = 0"] ;
928 -> 930 ;
931 [label="x[2] <= 1.5\ngini = 0.5\nsamples = 886\nvalue = [430, 456]\nclass = 1"] ;
915 -> 931 ;
932 [label="x[345] <= 1.5\ngini = 0.475\nsamples = 363\nvalue = [141, 222]\nclass = 1"] ;
931 -> 932 ;
933 [label="x[170] <= 1.5\ngini = 0.498\nsamples = 90\nvalue = [48, 42]\nclass = 0"] ;
932 -> 933 ;
934 [label="gini = 0.365\nsamples = 25\nvalue = [6, 19]\nclass = 1"] ;
933 -> 934 ;
935 [label="gini = 0.457\nsamples = 65\nvalue = [42, 23]\nclass = 0"] ;
933 -> 935 ;
936 [label="x[78] <= 1.5\ngini = 0.449\nsamples = 273\nvalue = [93, 180]\nclass = 1"] ;
932 -> 936 ;
937 [label="gini = 0.5\nsamples = 61\nvalue = [30, 31]\nclass = 1"] ;
936 -> 937 ;
938 [label="gini = 0.418\nsamples = 212\nvalue = [63, 149]\nclass = 1"] ;
936 -> 938 ;
939 [label="x[2] <= 2.5\ngini = 0.494\nsamples = 523\nvalue = [289, 234]\nclass = 0"] ;
931 -> 939 ;
940 [label="x[0] <= 0.5\ngini = 0.497\nsamples = 505\nvalue = [272, 233]\nclass = 0"] ;
939 -> 940 ;
941 [label="gini = 0.326\nsamples = 39\nvalue = [31, 8]\nclass = 0"] ;
940 -> 941 ;
942 [label="gini = 0.499\nsamples = 466\nvalue = [241, 225]\nclass = 0"] ;
940 -> 942 ;
943 [label="x[259] <= 2.5\ngini = 0.105\nsamples = 18\nvalue = [17, 1]\nclass = 0"] ;
939 -> 943 ;
944 [label="gini = 0.0\nsamples = 17\nvalue = [17, 0]\nclass = 0"] ;
943 -> 944 ;
945 [label="gini = 0.0\nsamples = 1\nvalue = [0, 1]\nclass = 1"] ;
943 -> 945 ;
946 [label="x[164] <= 2.5\ngini = 0.459\nsamples = 4301\nvalue = [2763, 1538]\nclass = 0"] ;
914 -> 946 ;
947 [label="x[400] <= 2.5\ngini = 0.458\nsamples = 4284\nvalue = [2762, 1522]\nclass = 0"] ;
946 -> 947 ;
948 [label="x[499] <= 2.5\ngini = 0.457\nsamples = 4259\nvalue = [2757, 1502]\nclass = 0"] ;
947 -> 948 ;
949 [label="x[132] <= 2.5\ngini = 0.455\nsamples = 4243\nvalue = [2755, 1488]\nclass = 0"] ;
948 -> 949 ;
950 [label="gini = 0.454\nsamples = 4213\nvalue = [2747, 1466]\nclass = 0"] ;
949 -> 950 ;
951 [label="gini = 0.391\nsamples = 30\nvalue = [8, 22]\nclass = 1"] ;
949 -> 951 ;
952 [label="x[39] <= 1.5\ngini = 0.219\nsamples = 16\nvalue = [2, 14]\nclass = 1"] ;
948 -> 952 ;
953 [label="gini = 0.0\nsamples = 2\nvalue = [2, 0]\nclass = 0"] ;
952 -> 953 ;
954 [label="gini = 0.0\nsamples = 14\nvalue = [0, 14]\nclass = 1"] ;
952 -> 954 ;
955 [label="x[175] <= 1.5\ngini = 0.32\nsamples = 25\nvalue = [5, 20]\nclass = 1"] ;
947 -> 955 ;
956 [label="x[318] <= 1.5\ngini = 0.444\nsamples = 6\nvalue = [4, 2]\nclass = 0"] ;
955 -> 956 ;
957 [label="gini = 0.0\nsamples = 2\nvalue = [0, 2]\nclass = 1"] ;
956 -> 957 ;
958 [label="gini = 0.0\nsamples = 4\nvalue = [4, 0]\nclass = 0"] ;
956 -> 958 ;
959 [label="x[215] <= 0.5\ngini = 0.1\nsamples = 19\nvalue = [1, 18]\nclass = 1"] ;
955 -> 959 ;
960 [label="gini = 0.0\nsamples = 1\nvalue = [1, 0]\nclass = 0"] ;
959 -> 960 ;
961 [label="gini = 0.0\nsamples = 18\nvalue = [0, 18]\nclass = 1"] ;
959 -> 961 ;
962 [label="x[138] <= 2.5\ngini = 0.111\nsamples = 17\nvalue = [1, 16]\nclass = 1"] ;
946 -> 962 ;
963 [label="gini = 0.0\nsamples = 16\nvalue = [0, 16]\nclass = 1"] ;
962 -> 963 ;
964 [label="gini = 0.0\nsamples = 1\nvalue = [1, 0]\nclass = 0"] ;
962 -> 964 ;
}